#ifndef EMG_WEIGHTS_H
#define EMG_WEIGHTS_H

/* Feature scaler */
#define NUM_FEATURES 18
#define HIDDEN1_SIZE 32
#define HIDDEN2_SIZE 16
#define NUM_GESTURES 10

static const float SCALER_MEAN[NUM_FEATURES] = {
    0.009912f, -0.006591f, -0.027985f, -0.011447f, 0.000073f, -0.114443f, 0.009859f, -0.053250f, -0.036910f, 0.105048f, 0.006814f, -0.004836f, -0.002664f, 0.012832f, -0.049472f, 0.015433f, -0.001391f, -0.015065f
};

static const float SCALER_SCALE[NUM_FEATURES] = {
    0.986826f, 1.025555f, 0.986465f, 0.997456f, 1.003041f, 0.990036f, 1.038962f, 0.998979f, 1.014363f, 0.983046f, 0.977065f, 0.977257f, 0.954200f, 0.953521f, 1.007935f, 1.014308f, 0.988903f, 0.988360f
};

/* Layer 1 weights (HIDDEN1) */
static const float WEIGHTS_0[18][32] = {
    {-0.789291f, 0.765796f, 0.518121f, 0.625488f, -0.266260f, -0.379295f, -0.862793f, 0.401384f, 0.183870f, 0.542641f, -0.530225f, 0.747475f, 0.060358f, -0.649877f, -0.538668f, -0.664887f, -0.187753f, 0.158972f, 0.049191f, -0.671665f, 0.619688f, -0.236100f, 0.310315f, -0.584331f, 0.089192f, -0.186385f, -0.437386f, 0.803258f, -0.381381f, -0.393163f, 0.458169f, 0.128802f},
    {-0.679946f, 0.603404f, 0.613019f, 0.216487f, -0.473659f, -0.486214f, 0.259952f, -0.677319f, -0.688527f, 0.672318f, -0.162829f, 0.570165f, -0.074716f, 0.488560f, -0.451649f, 0.198612f, 0.062357f, -0.149768f, -0.089390f, 0.548420f, 0.702510f, 0.204303f, 0.296692f, 0.298978f, -0.453779f, -0.501368f, -0.385316f, 0.019138f, 0.449317f, -0.101704f, 0.516454f, -0.167518f},
    {-0.203682f, 0.041065f, -0.388290f, 0.741187f, -0.522245f, 0.234004f, 0.440121f, -1.016283f, -0.455874f, 0.643742f, 0.378188f, 0.511079f, 0.287224f, -0.608039f, 0.253756f, -0.874881f, 0.468966f, -0.153693f, -0.462900f, -0.353134f, 0.160152f, -0.320530f, 0.249504f, -0.506030f, 0.598568f, 0.379815f, -0.898745f, 0.361461f, 0.352883f, 0.363727f, 0.234269f, 0.383949f},
    {-0.593305f, 0.231762f, -0.430368f, -0.384926f, -0.364474f, 0.804688f, -0.419985f, 0.034904f, 0.940285f, -0.700797f, -0.657290f, -0.250640f, -0.769590f, -0.948664f, -0.438311f, -0.107924f, 0.700217f, 0.116349f, -0.330206f, 1.045343f, -0.334542f, -0.036202f, 0.167914f, 0.000556f, 0.096803f, 1.223313f, -0.413906f, -1.160456f, -0.601229f, 0.120417f, 0.477137f, 0.633543f},
    {-0.673121f, 0.106023f, -0.297894f, -0.065029f, -0.131060f, 0.006466f, -0.037091f, 0.070965f, 0.594912f, 0.494944f, -0.206582f, -0.044776f, 0.824531f, -0.232715f, 0.107689f, -0.472563f, -0.234724f, -0.929351f, -0.012917f, 0.527888f, -0.599639f, -0.401187f, 0.944599f, -0.392207f, -0.779232f, 0.248588f, 0.566071f, 0.169595f, 0.564335f, -0.105784f, -0.491817f, 0.277564f},
    {-0.090925f, 0.259019f, -0.092274f, -0.098894f, -0.547517f, 0.309999f, -0.245850f, -0.703935f, -0.372062f, -0.503189f, -0.270538f, -0.519802f, -0.368176f, -0.380560f, 0.589918f, -0.402402f, -0.002868f, -0.468162f, 0.324667f, -0.667011f, 0.486588f, -0.292760f, 0.013284f, 0.402997f, -0.662580f, -0.184692f, 0.256266f, -0.015322f, -0.178891f, -0.442396f, -0.404090f, 0.639264f},
    {0.402932f, -0.078514f, -0.654620f, -0.115594f, 0.473901f, 0.809131f, -0.419358f, 0.037696f, 0.529370f, -0.499883f, -0.420622f, -0.080611f, -0.272733f, -0.646414f, -0.417247f, 0.298421f, -0.704353f, -0.242076f, 0.435096f, 0.513184f, 0.460897f, -0.328020f, 0.388271f, -0.657715f, -0.723299f, 0.333060f, 0.203329f, 0.040942f, 0.604209f, -0.382178f, -0.586721f, -0.017205f},
    {-0.802489f, -0.291311f, 0.504978f, -0.303325f, 0.616554f, -0.495103f, 0.815053f, 0.129451f, 0.090562f, 0.328414f, -0.604101f, -0.505051f, -0.356529f, -0.663235f, 0.007456f, -0.459323f, 0.294626f, -0.324948f, -0.038474f, 0.353072f, -0.781296f, 0.790456f, -0.568503f, 0.821043f, 0.876016f, 0.476898f, -0.630140f, -0.507988f, 0.211658f, -0.060188f, -0.551740f, 0.265405f},
    {0.308119f, -0.192803f, 0.285507f, -0.130518f, -0.406160f, 0.614741f, -0.605423f, -0.328928f, 0.685622f, 0.337499f, 0.259520f, -0.069003f, -0.448760f, -0.274371f, 0.527265f, 0.599588f, 0.427652f, 0.392391f, 0.600501f, 0.199190f, 0.505279f, 0.436981f, 0.050587f, 0.108540f, -0.507843f, -0.383557f, -0.331547f, -0.557909f, 0.208480f, -1.026218f, -0.035582f, 0.340470f},
    {-0.053458f, 0.084028f, -0.720421f, -0.718725f, 0.210793f, -0.437355f, -0.177788f, 0.499922f, 0.294804f, -0.344263f, -0.475318f, -0.699862f, -0.429825f, 0.107253f, 0.587054f, 0.247341f, 0.868847f, 0.219071f, -0.201193f, -0.063392f, 0.665238f, -0.605547f, 0.181713f, 0.001376f, -0.568692f, 0.369877f, 0.636266f, 0.122893f, -0.242823f, -0.530461f, -0.485994f, -0.758674f},
    {0.307013f, 0.034782f, -0.292832f, -0.384979f, 0.326342f, -0.058653f, 0.838755f, 0.620655f, 0.074268f, -0.347958f, -0.118130f, 0.667507f, -0.988264f, -0.298401f, 0.001743f, -0.765533f, -0.121283f, 0.341587f, -0.500052f, -0.337060f, 0.036819f, -0.453757f, -0.065768f, 0.580313f, 0.338692f, -0.216749f, 0.385731f, -0.772784f, 0.450123f, 0.418088f, 0.534980f, 0.815442f},
    {-0.354624f, -0.635195f, -0.412174f, 0.075424f, -0.861323f, 0.106080f, 0.060432f, 0.115663f, 0.054349f, 0.602846f, -0.689649f, 0.385536f, 1.085282f, 0.350996f, 0.788303f, 0.803295f, -0.150103f, -0.292329f, -0.671108f, -0.021623f, -0.825897f, 0.583356f, -0.283531f, -0.257099f, 0.003741f, -0.139121f, 0.207173f, -0.131000f, -0.173215f, 0.606305f, 0.454371f, 0.879888f},
    {-0.124920f, 0.815438f, -0.916626f, -0.655460f, -0.174739f, 0.636103f, 1.120459f, -0.089190f, -0.153798f, -0.184149f, -1.222512f, 0.449359f, 0.288291f, -0.167487f, -0.108042f, 0.252317f, -0.850480f, 0.896346f, 0.114650f, 0.431447f, -0.413503f, 0.380457f, -0.321461f, -0.896883f, 0.452225f, -0.626822f, -0.816549f, 0.005995f, 0.111045f, -0.200203f, 0.374896f, -0.369653f},
    {-0.082151f, -0.146081f, 0.171364f, 0.443306f, 0.071972f, 0.437098f, 0.173235f, 0.026404f, -0.263836f, 0.720075f, 0.312596f, 0.294165f, 0.459264f, -0.858588f, 0.001541f, 0.268229f, 0.339906f, -0.855966f, -0.239107f, 0.152149f, -0.074499f, 0.708888f, 0.259361f, -0.249180f, -0.482492f, 0.840683f, -0.126458f, 0.372396f, 0.644716f, 0.332742f, 0.841385f, 0.444760f},
    {0.359587f, -0.835476f, 0.436552f, 0.595015f, 0.262410f, 0.405778f, -0.492277f, -0.035675f, -0.079597f, -0.062817f, -0.784679f, -0.662147f, -0.391002f, -0.023551f, 0.194682f, -0.025667f, 0.530499f, 0.132755f, -0.446407f, 0.385675f, -0.558721f, 1.129703f, -0.997798f, -0.098015f, -0.671440f, 0.913932f, -0.113262f, 1.039168f, -0.126756f, 0.574146f, 0.101532f, 0.250222f},
    {0.454557f, 0.457734f, 0.120638f, 0.150302f, -0.340506f, -0.222163f, -0.219295f, -1.243049f, 1.316239f, -0.199237f, -0.081194f, 0.122368f, -0.281013f, -0.847059f, 0.273604f, -0.115924f, 0.496204f, -0.688938f, 0.630506f, -0.005754f, 1.021236f, -0.222309f, 0.020139f, 0.762913f, -0.043685f, -1.016140f, -0.050716f, 0.497775f, 0.551453f, 0.186071f, 0.374744f, 0.472304f},
    {0.489880f, 0.402511f, -1.253026f, -0.450813f, -0.401509f, 0.548885f, 0.678063f, -0.433156f, 0.154796f, -0.292606f, 0.631039f, 0.788376f, -0.271848f, 0.204773f, -0.048284f, -0.193874f, -0.692495f, 0.714047f, 0.887843f, 0.379541f, 0.912448f, -0.413007f, 0.348103f, 0.696990f, 0.153980f, -0.158016f, -0.501138f, -0.417383f, 0.610947f, 0.390873f, -0.020168f, 0.063287f},
    {0.261027f, 0.090527f, -0.727449f, -0.325860f, -0.133614f, -0.102112f, -0.400154f, 0.359086f, -0.539798f, 0.227750f, 0.367706f, -0.352484f, -0.707442f, -0.405867f, 0.030410f, 0.225145f, -0.164828f, -0.544659f, -0.410207f, -0.535609f, 0.047115f, 0.032899f, 0.575655f, -0.361901f, -0.334664f, -0.207761f, -0.302539f, 0.594877f, -0.069815f, 0.355025f, 1.136366f, -0.060833f}
};

/* Layer 1 biases */
static const float BIASES_0[32] = {
    -0.286707f, 0.422802f, -0.033962f, 0.044710f, 0.075675f, 0.745257f, 0.378040f, -0.375621f, 0.494152f, -0.676940f, -0.587373f, -0.451653f, -0.640796f, -0.515874f, -0.415899f, 0.011309f, -0.253858f, -0.656811f, 0.746320f, 0.193745f, 0.208076f, -0.504396f, 0.175235f, -0.060425f, 0.196784f, 0.325599f, -0.187708f, -0.596661f, 0.272989f, -0.164532f, -0.173326f, -0.314619f
};

/* Layer 2 weights (HIDDEN2) */
static const float WEIGHTS_1[32][16] = {
    {0.090741f, 0.055179f, -0.532294f, -0.272584f, 0.421037f, -1.350341f, 0.140362f, 0.320627f, -0.186893f, 0.076642f, 0.828269f, 0.814725f, -0.684228f, 0.023410f, -0.753649f, 0.515363f},
    {-0.117289f, 0.026508f, 0.070420f, 0.630568f, -0.532772f, -1.101583f, 0.240056f, 0.598707f, -0.324990f, 0.327527f, -0.533248f, -0.005317f, -0.158397f, -0.610045f, -0.452806f, -0.109822f},
    {-0.270652f, -0.702488f, 0.669631f, -0.610246f, 0.114634f, 0.888552f, 0.022271f, 0.024531f, 0.446711f, 0.197053f, -0.865392f, 0.501537f, 0.305826f, 0.432209f, 0.600774f, -1.268320f},
    {-0.325786f, 0.036478f, 0.184067f, -0.090496f, 0.237676f, 0.485055f, 0.046050f, -0.132662f, -0.180577f, 0.169678f, 0.213502f, -0.584532f, -0.417197f, -0.260632f, -0.853587f, 1.176794f},
    {-0.270177f, 0.086630f, -0.227194f, 0.875361f, -0.219114f, -0.303242f, 0.605311f, 0.373304f, 0.865649f, -0.734635f, -0.020355f, -0.047869f, -0.047902f, 0.182370f, -0.147990f, -0.656461f},
    {0.414311f, -0.585468f, -0.592364f, 0.111856f, 0.087425f, 0.127886f, -1.186948f, 0.343182f, -0.160755f, -0.212249f, -0.363422f, -0.266419f, 0.158232f, -0.218327f, -0.231831f, -0.395446f},
    {-0.539353f, 0.362025f, -0.711107f, 0.192384f, -0.313512f, 1.088491f, 0.381016f, -0.063591f, 0.147854f, 0.165686f, -0.300649f, 0.109752f, 0.416853f, 0.462047f, -0.216941f, 0.727050f},
    {1.214095f, -0.401162f, -0.396778f, 0.672599f, 0.861663f, 0.868172f, -0.265381f, -0.140819f, -0.376328f, -1.313697f, -0.152981f, 0.615262f, -0.262965f, 0.431351f, 0.183481f, 0.698876f},
    {0.178071f, 0.630753f, 0.170887f, -0.334947f, -0.067390f, -1.120046f, 0.072972f, 0.699210f, 0.353715f, 0.385725f, -0.465969f, 0.060450f, 0.613427f, 0.161526f, 0.003450f, 0.861569f},
    {-0.012986f, -0.552329f, -0.878608f, 1.065387f, -0.282811f, 0.523393f, 0.552298f, 0.582235f, -0.246175f, -0.433062f, 0.315104f, 0.187462f, 0.277858f, 0.596684f, 0.516712f, 0.976264f},
    {-0.121082f, -0.509066f, -0.276186f, -0.238670f, -1.649720f, -0.325413f, 0.760892f, 0.738307f, -0.053770f, 0.577549f, 0.475786f, -0.113725f, 0.596045f, 0.315453f, -0.129361f, -0.255866f},
    {-1.167189f, 0.853459f, -0.289233f, -0.328905f, -0.197555f, -0.179938f, -0.574944f, -0.011443f, 0.866411f, -0.966743f, 0.291780f, 0.379536f, 0.160624f, -0.084527f, 0.251472f, 0.386427f},
    {0.105609f, 0.000969f, 0.622676f, 0.230859f, 0.447352f, -0.349233f, 0.659961f, 1.066116f, -0.200398f, -0.708254f, 0.757805f, 0.911989f, -1.031362f, 0.335611f, 0.651832f, -0.030325f},
    {0.508354f, -0.149969f, -0.271348f, 0.041265f, 0.448088f, -1.195421f, -0.277458f, 0.259523f, 0.950743f, 0.417255f, 0.206737f, -0.008519f, 0.306128f, 0.287769f, -0.510468f, -0.669292f},
    {-0.256685f, -0.855513f, 0.557078f, -0.735819f, -0.109288f, -0.195594f, 0.395560f, 0.261667f, -0.817912f, 0.400781f, -0.136555f, 0.251669f, -0.090067f, -0.684429f, -1.408691f, 0.101900f},
    {-0.628043f, -0.139935f, -1.176249f, 0.116016f, -0.109630f, 0.554187f, -0.013957f, -0.545688f, -0.887755f, -0.422995f, -0.240783f, -0.976577f, 0.176946f, 0.188289f, 0.160431f, 0.130590f},
    {-0.599500f, 0.484463f, -0.876407f, -0.781451f, 0.357520f, 0.435658f, -0.235413f, -0.851409f, 0.123398f, -0.218672f, -0.069125f, -0.241504f, 0.501218f, 0.094302f, -0.943398f, -0.878404f},
    {-0.269359f, 0.567426f, 1.191108f, -0.524221f, 0.451966f, 0.287903f, 0.136981f, 0.282437f, -1.002740f, -0.334247f, 0.174997f, 0.649316f, 0.656496f, -0.658382f, 0.847758f, -0.185034f},
    {-0.098258f, 0.293948f, -0.400627f, -0.266618f, 0.007860f, -0.726867f, -0.363271f, 0.046375f, -0.372680f, 0.496541f, 0.809355f, -0.682040f, 0.070806f, -0.484269f, -0.046610f, -0.350910f},
    {0.322257f, 0.049041f, -0.638256f, -0.166111f, -0.489735f, 0.363307f, 0.181731f, -0.624904f, 0.886326f, 0.196725f, -0.046829f, 0.593546f, -0.773354f, -0.660752f, -0.676587f, -0.007960f},
    {0.344794f, 0.193448f, -0.686784f, 0.179854f, 0.645861f, 0.139095f, -1.021558f, 0.305907f, 0.218828f, 0.391046f, -1.012048f, 0.182081f, -0.378084f, -0.325111f, 0.503848f, 0.984226f},
    {-0.266665f, -1.364445f, -0.207943f, 0.685726f, 0.023636f, 0.264880f, 0.687882f, -0.440819f, -0.801429f, 0.294295f, -0.264536f, -0.649679f, 0.429662f, -0.935645f, -0.802372f, 0.376537f},
    {-0.234542f, 0.045883f, -0.098056f, -0.738890f, 0.014487f, 0.038414f, 0.686553f, -0.830724f, 0.009724f, -0.016142f, 0.403920f, 0.363585f, -0.029449f, -0.985174f, -0.398869f, -0.348357f},
    {0.292094f, 0.363169f, -0.623646f, 0.329060f, -0.202432f, 0.351013f, -0.072649f, -0.386573f, 0.464977f, -1.088953f, 0.300243f, -0.937487f, -0.303080f, 0.488178f, 0.331796f, -0.116931f},
    {-0.287699f, -0.069043f, -0.475671f, -0.845135f, 0.321984f, -0.911579f, 0.444462f, -0.309952f, -1.221798f, 0.298797f, 0.627831f, 0.059352f, 0.562610f, 0.056558f, 0.023976f, 0.353443f},
    {-0.561505f, -0.170986f, -0.256893f, 0.205648f, 0.621849f, -0.603768f, 0.196888f, 0.723355f, -1.357879f, 0.141637f, 0.756296f, -0.860008f, 0.516959f, -0.170357f, 0.913770f, 0.465541f},
    {0.180042f, 0.498019f, 1.200126f, 0.414160f, -0.819226f, 0.485604f, -0.986669f, -0.026535f, -0.293815f, -0.105714f, -0.355016f, -0.224654f, 0.298055f, -0.447497f, -0.206937f, 0.031369f},
    {0.475378f, 0.884092f, 0.196321f, 0.172954f, 0.817084f, 0.091459f, -0.304371f, -0.458733f, 0.345587f, -1.851748f, 0.300240f, 0.236804f, 0.801730f, 0.717098f, 0.967097f, -0.251917f},
    {0.121286f, 0.255847f, -0.917888f, 0.343885f, -0.137069f, 0.556264f, 0.129701f, -0.025652f, 0.270985f, 0.426065f, -0.240762f, -0.150099f, 0.048153f, 0.230480f, -0.780780f, -1.076289f},
    {-0.745387f, -1.315079f, 0.566750f, 0.026018f, -0.519999f, 0.715129f, 0.002544f, 0.330581f, 0.130158f, 0.344787f, -0.638746f, 0.453732f, 0.308819f, -0.592173f, -0.022535f, -1.048207f},
    {1.118559f, -0.526486f, 0.989998f, 0.025089f, -0.006032f, -0.216227f, -0.231512f, -1.301315f, 0.092884f, -0.561828f, -0.022936f, 0.094058f, -0.638465f, 0.804826f, -0.015367f, 0.526408f},
    {0.774254f, -0.475798f, -0.015768f, 0.409394f, -0.059602f, -1.098909f, -0.046967f, -0.374360f, -1.417658f, 0.205859f, -0.278743f, -0.172729f, -1.197430f, 0.437971f, 0.484045f, -0.755608f}
};

/* Layer 2 biases */
static const float BIASES_1[16] = {
    -0.133319f, 0.508833f, 0.747280f, 0.132424f, -0.038772f, 0.279746f, -0.156129f, -0.400657f, -0.147763f, -0.033426f, 0.781663f, -0.141186f, -0.600436f, 0.029447f, 0.315294f, -0.425531f
};

/* Layer 3 weights (OUTPUT) */
static const float WEIGHTS_2[16][10] = {
    {0.745046f, 0.581247f, -1.486517f, -0.062015f, 0.862124f, 0.336792f, -0.235733f, 0.342115f, -1.881344f, 0.929585f},
    {0.822969f, -0.532148f, 1.026388f, 0.538848f, 0.097857f, 0.675972f, 0.472808f, 0.162634f, -1.100420f, 0.006764f},
    {-2.735807f, 1.293022f, 1.844748f, -0.685350f, -1.114229f, -3.473778f, 0.363127f, 1.123115f, -2.224811f, -0.130297f},
    {0.336181f, 0.968590f, -0.586211f, -0.201067f, -0.683446f, 0.510154f, 0.501174f, -1.586055f, 1.286300f, -0.804851f},
    {0.771493f, -1.586981f, 1.368822f, -0.458441f, 0.955053f, -0.744442f, -0.532110f, 0.573629f, -0.285323f, 0.393078f},
    {-0.480306f, -1.874543f, 0.129628f, 0.631273f, -0.217708f, 0.474098f, -0.549292f, 0.950627f, -3.857246f, 1.014978f},
    {0.858518f, 0.838014f, 0.418755f, -1.267964f, 0.857102f, -1.474041f, -1.310966f, 0.242337f, -0.215542f, 0.095272f},
    {-0.642042f, 0.394338f, -1.634440f, 1.799735f, 0.009893f, -0.367962f, -0.940920f, 0.191110f, 0.586790f, -0.123530f},
    {-3.799592f, 0.643681f, -0.016668f, -2.885598f, 0.604002f, -1.819931f, -0.564372f, 1.800800f, 1.224311f, 0.607369f},
    {0.065818f, 0.548615f, 0.846416f, -1.046208f, 0.655786f, 0.071412f, -0.141304f, -3.086917f, 0.183621f, 0.461569f},
    {0.846952f, -0.255682f, 0.966737f, -1.892196f, -0.435558f, -0.447555f, 1.236303f, 0.713026f, 0.084574f, 0.193425f},
    {0.236729f, -1.971249f, -0.137722f, 0.926749f, 1.036200f, 0.377028f, -0.648966f, -1.030305f, -0.763709f, 0.586095f},
    {-1.102448f, 0.407437f, -1.795268f, 0.957206f, -0.319916f, 0.995045f, -0.310818f, -0.288726f, -0.188295f, -0.797331f},
    {0.404888f, -0.466306f, 0.842455f, 0.387705f, -0.354423f, 0.211098f, 0.892226f, -2.309810f, 0.585107f, -1.211818f},
    {-1.230173f, 1.553439f, -0.785121f, -0.284272f, -0.507578f, 0.933887f, 0.538319f, -2.368224f, -0.515657f, 1.059583f},
    {-1.290635f, 0.085342f, -0.608587f, -2.453162f, -0.599296f, -0.845825f, 0.105180f, 1.438429f, 1.587406f, -0.878757f}
};

/* Layer 3 biases */
static const float BIASES_2[10] = {
    -0.544672f, -0.439888f, -0.072995f, 0.814322f, -0.800427f, 0.029393f, 0.400827f, 0.005260f, 0.576078f, -0.107583f
};

#endif /* EMG_SMALL_WEIGHTS_H */
