/* EMG Gesture Recognition Model - 91.3% Accuracy */
/* Generated from Python scikit-learn model */

#ifndef EMG_MODEL_WEIGHTS_H
#define EMG_MODEL_WEIGHTS_H

/* Feature scaler (standardization) */
#define NUM_FEATURES 18
static const float SCALER_MEAN[NUM_FEATURES] = {
    405.225445f, 72.953343f, 405.134211f, 40.687233f, 0.000000f, 168.859248f, 228.515299f, 746.657601f, 227.578161f, 34.720700f, 0.000000f, 338.919019f, 143.587719f, 473.900315f, 142.716293f, 36.664096f, 0.000000f, 276.520452f
};

static const float SCALER_SCALE[NUM_FEATURES] = {
    17.050217f, 76.971548f, 17.078898f, 4.920616f, 1.000000f, 18.610262f, 130.554470f, 2897.177579f, 129.326079f, 7.191898f, 1.000000f, 282.078166f, 93.983132f, 1996.423880f, 92.781580f, 7.163502f, 1.000000f, 228.268335f
};

/* Layer 1 weights (HIDDEN) */
static const float WEIGHTS_0[18][300] = {
    {-0.098909f, 0.084823f, 0.106792f, -0.005944f, -0.191278f, -0.087846f, -0.120816f, 0.084345f, 0.027599f, 0.080527f, -0.118130f, 0.168853f, 0.047633f, -0.079563f, -0.141928f, -0.077048f, -0.129965f, -0.043173f, -0.034819f, -0.101833f, -0.002176f, -0.149913f, -0.053063f, -0.070384f, 0.037186f, 0.002469f, -0.089675f, 0.083301f, -0.020885f, -0.075777f, 0.113127f, -0.086583f, -0.106296f, 0.143351f, 0.104985f, 0.082983f, -0.125310f, -0.123696f, 0.109219f, -0.052921f, -0.126082f, -0.096841f, -0.248903f, 0.065925f, -0.113620f, 0.051711f, -0.036549f, -0.006618f, 0.090732f, -0.054892f, 0.095187f, 0.224429f, 0.135014f, 0.084926f, 0.051907f, 0.118922f, -0.197789f, -0.131930f, -0.147080f, -0.061455f, -0.036115f, -0.007092f, 0.131796f, -0.063616f, -0.119617f, -0.015577f, -0.079251f, 0.088933f, -0.153790f, 0.199974f, 0.086647f, -0.136107f, -0.182922f, 0.104387f, 0.054822f, 0.172481f, 0.078290f, -0.142128f, -0.096412f, -0.050316f, 0.090437f, 0.126966f, -0.058520f, -0.129705f, -0.092017f, -0.083396f, 0.132575f, 0.076380f, 0.074389f, -0.014609f, -0.087015f, 0.083950f, 0.179988f, 0.021653f, 0.104392f, 0.066027f, -0.049915f, -0.042485f, -0.162366f, -0.068613f, -0.174417f, -0.062972f, -0.053339f, -0.090135f, 0.126439f, -0.031591f, -0.093088f, 0.071165f, -0.152091f, -0.088127f, -0.078305f, -0.141091f, 0.102264f, 0.110152f, 0.035493f, 0.190796f, 0.211181f, -0.108858f, 0.039066f, -0.003078f, 0.244162f, 0.170439f, -0.045287f, -0.159588f, -0.153401f, -0.033963f, 0.075022f, 0.165951f, -0.164315f, -0.017247f, -0.028066f, -0.042561f, -0.135271f, -0.050234f, 0.187568f, -0.075150f, 0.028777f, 0.096724f, -0.034927f, 0.140766f, 0.176565f, -0.116781f, 0.108857f, -0.039275f, -0.110767f, -0.090378f, 0.059792f, 0.045686f, -0.195592f, -0.008239f, 0.104314f, 0.040168f, -0.102208f, -0.054625f, 0.202164f, -0.125045f, -0.001280f, 0.067690f, -0.071857f, 0.082082f, -0.023806f, 0.032592f, 0.046092f, -0.015324f, -0.108305f, 0.223434f, -0.090758f, -0.050399f, -0.114128f, 0.021937f, 0.031366f, -0.130549f, -0.011522f, -0.127475f, 0.079186f, -0.159939f, 0.091860f, -0.014277f, 0.253161f, -0.118329f, -0.107401f, -0.101690f, 0.095824f, 0.139813f, -0.068707f, 0.055639f, 0.085634f, -0.004276f, 0.026043f, 0.003615f, -0.148491f, 0.112634f, 0.230828f, 0.001298f, -0.095712f, -0.019656f, 0.206888f, 0.090132f, 0.162731f, 0.101877f, 0.117653f, -0.145991f, -0.164711f, 0.171545f, 0.059233f, -0.100872f, -0.044741f, 0.050856f, -0.149250f, -0.143551f, 0.079515f, 0.027764f, 0.018730f, -0.019088f, 0.065610f, -0.085976f, -0.055995f, 0.058926f, 0.031367f, 0.075205f, 0.073276f, 0.000544f, -0.176973f, -0.024403f, -0.066060f, -0.079169f, 0.158807f, -0.063251f, 0.182360f, 0.006143f, 0.057661f, 0.033240f, 0.037536f, 0.001678f, -0.011096f, -0.026975f, 0.027025f, -0.121504f, 0.009796f, -0.067843f, 0.086693f, 0.113751f, 0.126822f, -0.033038f, -0.181754f, 0.148810f, -0.016825f, 0.235210f, 0.246823f, 0.074256f, -0.060891f, -0.011144f, 0.103098f, -0.071342f, -0.206629f, 0.030169f, 0.095762f, 0.043670f, 0.007148f, -0.154511f, 0.086056f, 0.094254f, -0.151325f, -0.025593f, 0.122639f, 0.067067f, 0.029824f, 0.027049f, -0.038007f, -0.087565f, 0.089122f, 0.031345f, 0.098444f, 0.120653f, -0.013118f, -0.058712f, 0.092222f, 0.084354f, 0.084375f, 0.082844f, 0.074880f, -0.071113f, -0.030743f, -0.174477f, 0.062977f, -0.188307f, -0.020822f, 0.003966f, -0.165977f, -0.012374f, -0.134564f, -0.185041f, 0.091930f, -0.054967f, -0.125137f, -0.033574f, -0.001038f, -0.145400f, 0.036914f, -0.186225f},
    {-0.208984f, -0.009310f, 0.033879f, 0.028461f, 0.110000f, 0.191664f, -0.038903f, -0.068691f, 0.065235f, -0.032376f, -0.041343f, -0.137647f, -0.162265f, 0.072246f, 0.129100f, 0.097995f, -0.060274f, -0.165435f, -0.196952f, -0.092196f, 0.025161f, 0.061035f, 0.058896f, -0.122723f, 0.154507f, 0.078620f, -0.021261f, 0.099014f, -0.033271f, -0.128270f, -0.039227f, 0.095877f, -0.172135f, -0.236417f, -0.125597f, -0.147992f, 0.123014f, 0.039112f, 0.028727f, -0.151566f, -0.030275f, -0.095523f, -0.331633f, 0.089036f, 0.014724f, 0.099558f, 0.048536f, -0.225925f, 0.011543f, -0.000655f, -0.014786f, 0.102506f, 0.154314f, -0.170694f, -0.141402f, 0.029239f, -0.272620f, -0.023939f, 0.125451f, 0.036930f, -0.001700f, 0.084897f, 0.058648f, 0.052222f, 0.142357f, 0.038463f, 0.144170f, 0.159964f, -0.108564f, -0.171043f, -0.047644f, -0.282111f, -0.075404f, 0.050828f, -0.233325f, -0.044884f, 0.075346f, -0.147631f, 0.049666f, -0.229633f, -0.049929f, 0.100718f, 0.053541f, 0.092331f, 0.054924f, 0.107966f, -0.112327f, -0.232975f, 0.111808f, 0.119114f, 0.157716f, -0.046172f, -0.089020f, 0.093417f, 0.003118f, 0.153784f, 0.140015f, 0.047322f, 0.070530f, 0.012445f, -0.074284f, 0.057987f, -0.168601f, 0.146612f, -0.084555f, 0.139507f, -0.134145f, -0.184388f, 0.028873f, -0.071744f, -0.117211f, 0.133457f, 0.140906f, -0.024749f, 0.050805f, 0.058530f, 0.062771f, -0.013034f, 0.052755f, 0.046996f, 0.154146f, 0.088433f, -0.205590f, 0.034587f, -0.173365f, -0.068965f, 0.061112f, 0.105689f, 0.002140f, -0.150387f, -0.267390f, 0.121062f, 0.067937f, -0.184611f, -0.192666f, 0.072715f, -0.134676f, 0.117706f, 0.028554f, -0.220769f, -0.197456f, 0.107074f, 0.090604f, 0.008258f, 0.138268f, 0.143080f, 0.163626f, 0.156053f, -0.190448f, -0.149496f, 0.079948f, 0.042123f, 0.022533f, 0.126966f, -0.151650f, -0.009413f, -0.160555f, -0.007306f, -0.078654f, -0.161742f, -0.067952f, 0.005507f, 0.091438f, 0.011499f, 0.095092f, -0.061644f, -0.056792f, 0.020369f, -0.047420f, 0.131056f, -0.147112f, 0.213617f, -0.120981f, 0.094917f, 0.013255f, 0.114177f, -0.095456f, 0.024061f, 0.115228f, -0.111773f, 0.078426f, 0.091710f, -0.013493f, 0.027098f, 0.084234f, 0.138022f, -0.177306f, -0.038727f, 0.106542f, 0.114875f, -0.087197f, 0.101686f, -0.051257f, -0.061286f, -0.148551f, 0.003525f, 0.009098f, -0.054215f, 0.111861f, 0.103579f, 0.076351f, -0.020966f, -0.132872f, 0.065278f, 0.173903f, -0.128625f, 0.076053f, 0.179509f, 0.088463f, 0.003340f, 0.082492f, -0.092657f, 0.181024f, 0.157774f, -0.233511f, -0.181885f, -0.046802f, 0.144540f, 0.105033f, -0.135883f, 0.107858f, -0.213010f, 0.052911f, 0.111126f, 0.097739f, 0.014620f, 0.074576f, -0.058354f, -0.077864f, 0.078567f, 0.117217f, 0.162225f, 0.118655f, -0.113326f, 0.156206f, 0.108244f, 0.141936f, -0.073026f, -0.041505f, -0.094784f, 0.114235f, -0.001085f, 0.002335f, 0.019676f, 0.068182f, -0.094834f, -0.156579f, 0.059142f, 0.100477f, 0.096843f, -0.039024f, 0.144346f, 0.021019f, 0.025517f, 0.209932f, -0.047047f, -0.157121f, -0.272993f, 0.096150f, 0.009131f, 0.097755f, -0.069986f, -0.089098f, -0.268166f, -0.084308f, -0.014202f, -0.111005f, -0.050179f, 0.166137f, 0.041432f, -0.031708f, 0.097675f, 0.033961f, 0.079825f, 0.067779f, 0.109686f, -0.022931f, 0.194051f, 0.032938f, -0.177036f, 0.033519f, 0.161819f, -0.018833f, -0.059090f, 0.148882f, -0.114793f, -0.207292f, -0.122436f, -0.027690f, -0.218080f, -0.097065f, 0.079093f, -0.060851f, -0.077849f, 0.122920f, 0.101700f, 0.101002f, -0.183988f, -0.013980f, 0.018792f},
    {-0.155087f, -0.099564f, -0.045660f, -0.145800f, -0.201046f, -0.004546f, -0.079913f, -0.053291f, 0.000838f, 0.075515f, -0.112938f, 0.122033f, -0.008274f, -0.115087f, 0.047617f, 0.125104f, -0.196377f, -0.110824f, 0.068376f, 0.023774f, -0.119382f, -0.130705f, -0.031642f, -0.037687f, 0.081457f, -0.111628f, -0.017367f, 0.146810f, -0.173201f, -0.019062f, 0.141932f, 0.112017f, 0.016391f, 0.029358f, -0.130618f, -0.015962f, -0.062761f, -0.083897f, -0.004946f, -0.069975f, -0.153971f, -0.143974f, -0.199645f, -0.094214f, -0.151918f, 0.113725f, 0.040653f, 0.037493f, 0.156816f, 0.031459f, -0.147013f, 0.158638f, 0.037494f, 0.044342f, 0.006326f, -0.099071f, -0.143696f, -0.085688f, 0.017844f, 0.005873f, -0.045155f, 0.188869f, 0.070088f, -0.096531f, -0.168808f, -0.122855f, -0.050515f, -0.087315f, -0.122867f, 0.007361f, -0.077889f, 0.056092f, -0.162562f, 0.024476f, -0.026031f, 0.241683f, -0.102488f, -0.053204f, 0.071582f, 0.156022f, 0.077547f, 0.026086f, -0.102532f, 0.036457f, 0.077816f, -0.019894f, 0.089213f, -0.021150f, 0.041849f, -0.093032f, -0.031255f, 0.005046f, 0.110489f, -0.066038f, -0.076029f, 0.097745f, -0.114315f, -0.000641f, -0.126987f, 0.034109f, -0.036987f, -0.222926f, -0.046689f, -0.192931f, -0.104950f, 0.171431f, -0.117001f, 0.086273f, -0.144366f, 0.077659f, 0.051116f, -0.021893f, -0.023582f, 0.001576f, -0.042681f, 0.206084f, 0.217501f, 0.104714f, -0.171604f, 0.049660f, 0.279285f, -0.025934f, -0.113967f, 0.013415f, -0.058016f, 0.080145f, -0.111488f, 0.147826f, -0.111109f, -0.112346f, -0.096804f, 0.119546f, 0.014161f, 0.001031f, 0.027407f, 0.076764f, -0.005904f, 0.127686f, -0.013993f, -0.022055f, 0.039603f, -0.102947f, 0.176616f, 0.015941f, -0.125454f, 0.146132f, -0.002548f, 0.055746f, 0.039779f, 0.086628f, -0.112859f, 0.232055f, 0.030064f, -0.096977f, -0.030157f, 0.026620f, -0.015363f, 0.005100f, 0.108143f, 0.098836f, -0.083278f, -0.055205f, -0.059624f, 0.041893f, -0.123679f, 0.150355f, 0.030531f, 0.139492f, -0.031569f, 0.085150f, -0.124187f, 0.096269f, -0.117016f, -0.080353f, 0.120726f, -0.166370f, -0.035017f, 0.077727f, 0.193555f, 0.020562f, -0.010585f, 0.015888f, -0.088910f, -0.006107f, -0.090078f, 0.123398f, 0.021683f, -0.046722f, 0.007563f, 0.197066f, -0.131671f, 0.026813f, 0.122104f, -0.004658f, -0.183161f, 0.123577f, 0.263255f, -0.001199f, 0.110513f, 0.141095f, 0.135099f, -0.127017f, -0.050525f, 0.091407f, 0.008135f, 0.098780f, 0.183926f, 0.122050f, -0.026697f, -0.156202f, 0.198902f, 0.068535f, -0.126260f, 0.171530f, 0.109327f, -0.008393f, 0.017076f, -0.036557f, -0.131602f, -0.065691f, 0.112630f, -0.153158f, -0.110592f, -0.016170f, 0.008703f, 0.106254f, -0.013864f, -0.075858f, 0.139580f, -0.042575f, -0.098933f, 0.019153f, -0.082025f, -0.084540f, 0.071093f, -0.109795f, 0.200550f, -0.028689f, -0.007822f, 0.057076f, -0.167718f, 0.034264f, -0.075745f, 0.129262f, -0.145310f, 0.008093f, -0.110644f, 0.243206f, 0.119428f, 0.003413f, -0.123074f, 0.088649f, -0.072956f, 0.088024f, -0.197260f, -0.070294f, -0.150720f, -0.017148f, 0.005635f, -0.162997f, 0.129799f, -0.052924f, -0.045836f, -0.046368f, -0.007942f, 0.017558f, -0.118405f, -0.115573f, 0.099215f, 0.091187f, -0.030387f, -0.116436f, 0.036885f, -0.018123f, -0.146252f, -0.153215f, 0.069257f, 0.086320f, -0.101130f, -0.074281f, -0.106101f, 0.020205f, -0.128298f, -0.171594f, 0.122875f, -0.148863f, 0.030950f, -0.079548f, -0.217529f, -0.107214f, 0.055282f, 0.039399f, 0.093914f, -0.044655f, 0.023271f, -0.121158f, -0.131997f, 0.041894f, -0.130761f, -0.186714f},
    {-0.085636f, -0.112203f, -0.110348f, 0.034845f, -0.081974f, 0.148828f, 0.060379f, -0.042090f, -0.121651f, -0.151628f, 0.020451f, -0.148968f, 0.020628f, -0.100884f, 0.076891f, 0.000863f, -0.007561f, 0.218393f, 0.083235f, -0.143719f, 0.189202f, -0.029116f, 0.131660f, 0.239848f, -0.035026f, -0.141532f, -0.029910f, 0.048408f, -0.002990f, -0.116892f, -0.185807f, 0.158867f, 0.239815f, 0.110106f, -0.181540f, 0.051916f, -0.212666f, 0.121741f, -0.179893f, 0.008237f, 0.059822f, -0.025199f, -0.011204f, 0.103668f, -0.034051f, -0.143113f, -0.119746f, 0.120233f, 0.246204f, 0.005854f, 0.006431f, 0.083512f, -0.114388f, 0.221784f, 0.004075f, -0.007557f, -0.018417f, -0.274699f, -0.136586f, 0.014520f, -0.105761f, 0.028085f, -0.128901f, -0.012839f, 0.054034f, -0.078215f, 0.037224f, 0.024611f, -0.006901f, 0.045677f, 0.068037f, 0.333117f, 0.023214f, -0.057743f, -0.268410f, -0.023011f, -0.008592f, -0.157038f, 0.023885f, 0.032853f, 0.001452f, 0.054871f, -0.072708f, -0.073141f, 0.084613f, 0.013229f, 0.029868f, -0.038104f, -0.019153f, 0.207465f, 0.152445f, 0.005435f, 0.036583f, 0.064157f, -0.029273f, -0.240357f, 0.122238f, -0.081391f, 0.083224f, 0.001201f, -0.035886f, 0.013850f, 0.217448f, 0.108158f, 0.173876f, 0.009794f, 0.069500f, 0.074882f, -0.092101f, 0.000291f, -0.105044f, 0.227991f, 0.178747f, -0.209027f, 0.079195f, 0.220549f, -0.170818f, 0.073909f, 0.194068f, -0.097421f, 0.063815f, -0.093887f, 0.122451f, 0.120567f, 0.158764f, 0.020119f, 0.116897f, 0.155692f, 0.072200f, 0.083315f, -0.157000f, 0.019993f, -0.077984f, -0.169662f, -0.189349f, 0.018159f, -0.085805f, 0.141956f, -0.222975f, -0.181898f, -0.035741f, 0.078479f, -0.033560f, 0.066419f, 0.076511f, 0.107091f, -0.091141f, -0.135609f, 0.100648f, -0.222389f, 0.183453f, -0.047106f, 0.114385f, 0.067841f, 0.084213f, -0.099284f, 0.089010f, -0.030400f, -0.039287f, 0.046149f, 0.097131f, 0.118025f, 0.174009f, 0.003555f, -0.069280f, 0.207991f, -0.096325f, -0.174907f, -0.017994f, -0.033322f, -0.060304f, -0.026063f, -0.165810f, -0.180724f, 0.201954f, -0.062289f, -0.009044f, 0.060341f, 0.006248f, 0.201331f, 0.119635f, -0.182598f, -0.011794f, 0.127534f, 0.116709f, 0.017512f, 0.074882f, -0.063104f, 0.132688f, -0.141532f, 0.170472f, 0.108947f, 0.062439f, 0.035336f, -0.098489f, -0.139899f, -0.223502f, -0.056869f, 0.135557f, 0.033437f, -0.282654f, 0.104812f, 0.129854f, 0.120456f, 0.261869f, -0.188590f, -0.035641f, 0.137803f, 0.051262f, -0.158960f, 0.168163f, -0.008776f, -0.071184f, -0.009432f, -0.010119f, -0.033735f, -0.113846f, 0.218527f, -0.154717f, -0.121994f, 0.078931f, 0.095705f, 0.142119f, 0.117940f, 0.045834f, -0.033572f, -0.111410f, 0.025379f, 0.033479f, -0.098162f, 0.090550f, -0.070565f, -0.174523f, -0.139857f, 0.027772f, -0.152651f, 0.172874f, -0.008164f, 0.042740f, 0.052958f, 0.028874f, -0.010465f, 0.039420f, 0.069711f, -0.079127f, 0.185862f, 0.204288f, 0.103249f, 0.129196f, 0.216582f, 0.114969f, 0.180303f, 0.094004f, 0.057319f, -0.054673f, 0.021190f, -0.119130f, 0.122102f, 0.082249f, -0.215554f, 0.140851f, -0.237926f, -0.006589f, 0.059977f, -0.098216f, 0.160628f, 0.098944f, 0.040367f, -0.152450f, -0.005488f, 0.105042f, 0.200547f, 0.027251f, -0.117245f, 0.156854f, 0.106298f, 0.022735f, -0.225711f, 0.188391f, 0.017843f, 0.176425f, -0.161608f, 0.036652f, 0.224017f, -0.220202f, 0.152668f, 0.079162f, -0.171258f, -0.123080f, 0.146843f, -0.260148f, 0.088782f, -0.117546f, 0.021796f, -0.138132f, 0.087477f, 0.317724f, 0.170648f, 0.133428f, -0.074388f},
    {0.000000f, -0.000000f, -0.000000f, -0.000000f, -0.000000f, 0.000000f, -0.000000f, -0.000000f, 0.000000f, -0.000000f, -0.000000f, -0.000000f, 0.000000f, -0.000000f, -0.000000f, 0.000000f, -0.000000f, -0.000000f, 0.000000f, 0.000000f, 0.000000f, -0.000000f, 0.000000f, 0.000000f, -0.000000f, -0.000000f, -0.000000f, 0.000000f, 0.000000f, 0.000000f, 0.000000f, -0.000000f, -0.000000f, 0.000000f, 0.000000f, 0.000000f, 0.000000f, -0.000000f, -0.000000f, 0.000000f, 0.000000f, 0.000000f, 0.000000f, 0.000000f, 0.000000f, 0.000000f, -0.000000f, 0.000000f, 0.000000f, 0.000000f, -0.000000f, -0.000000f, 0.000000f, 0.000000f, 0.000000f, -0.000000f, 0.000000f, -0.000000f, 0.000000f, 0.000000f, -0.000000f, -0.000000f, 0.000000f, -0.000000f, -0.000000f, 0.000000f, -0.000000f, -0.000000f, 0.000000f, -0.000000f, 0.000000f, -0.000000f, -0.000000f, 0.000000f, -0.000000f, -0.000000f, -0.000000f, 0.000000f, 0.000000f, 0.000000f, 0.000000f, -0.000000f, -0.000000f, -0.000000f, 0.000000f, -0.000000f, -0.000000f, 0.000000f, 0.000000f, -0.000000f, 0.000000f, -0.000000f, -0.000000f, -0.000000f, -0.000000f, 0.000000f, 0.000000f, -0.000000f, -0.000000f, 0.000000f, 0.000000f, -0.000000f, -0.000000f, 0.000000f, 0.000000f, 0.000000f, -0.000000f, -0.000000f, 0.000000f, -0.000000f, -0.000000f, 0.000000f, -0.000000f, -0.000000f, 0.000000f, 0.000000f, 0.000000f, 0.000000f, -0.000000f, 0.000000f, 0.000000f, -0.000000f, 0.000000f, 0.000000f, 0.000000f, -0.000000f, 0.000000f, 0.000000f, -0.000000f, 0.000000f, -0.000000f, 0.000000f, -0.000000f, -0.000000f, 0.000000f, -0.000000f, 0.000000f, -0.000000f, 0.000000f, 0.000000f, -0.000000f, 0.000000f, 0.000000f, -0.000000f, 0.000000f, -0.000000f, -0.000000f, 0.000000f, 0.000000f, 0.000000f, 0.000000f, -0.000000f, 0.000000f, -0.000000f, 0.000000f, -0.000000f, -0.000000f, 0.000000f, 0.000000f, -0.000000f, 0.000000f, -0.000000f, 0.000000f, -0.000000f, 0.000000f, -0.000000f, 0.000000f, -0.000000f, -0.000000f, 0.000000f, -0.000000f, 0.000000f, -0.000000f, -0.000000f, 0.000000f, 0.000000f, 0.000000f, -0.000000f, -0.000000f, 0.000000f, 0.000000f, -0.000000f, -0.000000f, -0.000000f, 0.000000f, -0.000000f, 0.000000f, -0.000000f, -0.000000f, 0.000000f, 0.000000f, 0.000000f, 0.000000f, 0.000000f, -0.000000f, 0.000000f, -0.000000f, 0.000000f, 0.000000f, 0.000000f, 0.000000f, 0.000000f, 0.000000f, -0.000000f, 0.000000f, -0.000000f, 0.000000f, 0.000000f, 0.000000f, 0.000000f, 0.000000f, -0.000000f, -0.000000f, -0.000000f, -0.000000f, -0.000000f, 0.000000f, 0.000000f, 0.000000f, -0.000000f, -0.000000f, 0.000000f, 0.000000f, 0.000000f, 0.000000f, -0.000000f, 0.000000f, 0.000000f, -0.000000f, 0.000000f, -0.000000f, 0.000000f, 0.000000f, 0.000000f, 0.000000f, 0.000000f, 0.000000f, 0.000000f, 0.000000f, -0.000000f, -0.000000f, 0.000000f, -0.000000f, 0.000000f, 0.000000f, -0.000000f, -0.000000f, -0.000000f, 0.000000f, -0.000000f, -0.000000f, 0.000000f, 0.000000f, -0.000000f, 0.000000f, -0.000000f, -0.000000f, 0.000000f, 0.000000f, -0.000000f, -0.000000f, -0.000000f, -0.000000f, -0.000000f, -0.000000f, -0.000000f, 0.000000f, -0.000000f, 0.000000f, -0.000000f, -0.000000f, -0.000000f, -0.000000f, 0.000000f, 0.000000f, 0.000000f, 0.000000f, -0.000000f, -0.000000f, -0.000000f, -0.000000f, 0.000000f, 0.000000f, 0.000000f, -0.000000f, 0.000000f, -0.000000f, 0.000000f, -0.000000f, 0.000000f, 0.000000f, 0.000000f, -0.000000f, 0.000000f, -0.000000f, 0.000000f, 0.000000f, -0.000000f, -0.000000f, 0.000000f},
    {0.026221f, -0.055335f, -0.186253f, -0.071480f, 0.054432f, -0.059801f, 0.030634f, 0.025769f, 0.154054f, 0.123679f, 0.160883f, 0.052855f, 0.209191f, -0.284770f, -0.056767f, -0.131191f, 0.042329f, 0.129776f, -0.164717f, 0.119760f, -0.126636f, 0.115860f, -0.065296f, -0.084176f, -0.009788f, -0.088118f, -0.082937f, -0.083224f, 0.142999f, 0.018652f, -0.135351f, -0.000817f, 0.039896f, -0.129287f, -0.001502f, -0.208566f, -0.007083f, 0.064554f, -0.161629f, 0.014805f, 0.055019f, -0.224154f, -0.104061f, -0.167870f, 0.306679f, -0.009728f, 0.194569f, -0.025770f, -0.210738f, 0.002981f, 0.178663f, 0.010675f, 0.247726f, 0.088713f, -0.068566f, -0.050138f, -0.026953f, 0.018353f, 0.156696f, 0.117418f, -0.011979f, -0.148927f, 0.142436f, -0.101544f, 0.126027f, -0.160708f, 0.064957f, -0.139316f, 0.132243f, 0.088338f, 0.077816f, -0.116742f, 0.086736f, 0.146470f, -0.161762f, -0.134108f, -0.178818f, 0.038491f, 0.028711f, -0.020636f, -0.119680f, -0.078685f, 0.015644f, 0.039820f, 0.154631f, -0.186582f, 0.083370f, 0.009890f, 0.112127f, 0.087052f, 0.042390f, 0.162395f, -0.062501f, -0.120686f, 0.009602f, 0.134301f, -0.150795f, -0.114787f, -0.272590f, 0.048337f, -0.112335f, -0.188147f, -0.130782f, -0.019992f, -0.162786f, 0.062268f, -0.105719f, 0.070188f, -0.072093f, 0.072353f, 0.124197f, 0.053256f, 0.006565f, -0.091533f, 0.097149f, -0.020224f, 0.191964f, -0.012912f, 0.008742f, 0.136709f, 0.011723f, -0.138246f, -0.080620f, 0.054471f, -0.094177f, 0.101456f, -0.136643f, 0.075220f, -0.136871f, 0.031861f, 0.112228f, -0.020030f, 0.048350f, 0.166433f, 0.254000f, -0.049150f, -0.052279f, -0.122035f, 0.247701f, 0.170358f, 0.032067f, 0.099250f, -0.004488f, 0.114283f, -0.205825f, 0.093176f, -0.177058f, 0.246181f, 0.037818f, 0.153048f, -0.140949f, -0.106657f, -0.092688f, -0.082961f, -0.128513f, 0.083467f, 0.031308f, -0.099582f, 0.035559f, -0.016379f, -0.045618f, 0.017783f, 0.310778f, 0.010739f, 0.198827f, 0.046224f, -0.005274f, 0.192170f, -0.121212f, 0.094471f, 0.034915f, 0.182763f, 0.116455f, 0.104200f, 0.157703f, -0.023166f, -0.229647f, -0.074830f, -0.121082f, 0.081323f, -0.110967f, 0.119561f, 0.059674f, 0.132081f, -0.056858f, 0.179620f, 0.130080f, -0.003926f, 0.010946f, 0.132427f, -0.054381f, -0.056390f, -0.047184f, -0.099083f, -0.094943f, -0.180390f, -0.214771f, -0.086047f, 0.257443f, 0.027766f, 0.194596f, 0.049279f, 0.007324f, -0.099519f, -0.097072f, -0.053222f, 0.099150f, -0.142210f, -0.001452f, 0.068518f, -0.193155f, -0.091870f, 0.055992f, -0.087487f, -0.247470f, 0.192707f, -0.084872f, 0.031844f, 0.140451f, -0.165235f, -0.089231f, -0.198685f, -0.132155f, -0.167387f, -0.019572f, -0.083359f, 0.045899f, 0.204077f, 0.090492f, 0.099428f, -0.046208f, -0.018618f, 0.028051f, -0.087008f, -0.166998f, 0.210054f, -0.098516f, -0.160869f, -0.059345f, 0.020320f, 0.227880f, 0.029436f, 0.053256f, -0.113980f, 0.008432f, -0.000308f, -0.168453f, -0.002260f, 0.002192f, -0.145509f, -0.110736f, -0.053675f, -0.132073f, -0.025538f, 0.181340f, 0.027567f, 0.265381f, -0.039215f, -0.155554f, -0.021325f, -0.049736f, 0.134264f, -0.143559f, -0.085634f, -0.112242f, -0.067687f, 0.013155f, 0.028783f, -0.094075f, -0.041035f, -0.042932f, 0.075655f, 0.174907f, 0.242212f, 0.066334f, -0.072605f, 0.132121f, -0.029179f, -0.074193f, 0.240028f, -0.268884f, 0.186063f, 0.011080f, -0.070011f, 0.063281f, 0.137690f, 0.024377f, 0.049105f, -0.113029f, -0.064081f, -0.145759f, 0.086328f, 0.070162f, 0.141119f, -0.166512f, -0.247661f, 0.163921f, -0.156332f, -0.142115f, -0.170280f},
    {0.115809f, 0.036660f, -0.146731f, -0.149384f, 0.073614f, 0.114224f, 0.033729f, -0.170150f, -0.023511f, -0.121662f, 0.132728f, 0.039504f, -0.091785f, -0.215073f, -0.299854f, 0.235254f, -0.092389f, 0.009932f, 0.094263f, -0.072098f, -0.061373f, -0.166289f, 0.078584f, 0.120011f, 0.029184f, 0.038360f, -0.190745f, 0.184167f, 0.108745f, -0.056230f, 0.143876f, 0.062769f, 0.036399f, 0.016308f, 0.133978f, 0.132677f, -0.099172f, -0.000621f, 0.156305f, -0.129351f, -0.038214f, -0.058525f, -0.044907f, 0.062642f, 0.149786f, -0.083814f, -0.100106f, -0.162717f, 0.163765f, 0.000135f, -0.126692f, 0.133379f, 0.167060f, 0.041294f, 0.187926f, -0.151339f, 0.079790f, -0.016995f, 0.114290f, 0.053760f, 0.151918f, 0.095209f, -0.041222f, 0.013492f, 0.153470f, 0.151412f, -0.330741f, -0.166604f, -0.194769f, 0.147952f, 0.053003f, -0.073439f, -0.107856f, 0.164835f, 0.129861f, 0.017404f, -0.003669f, 0.091059f, -0.069439f, 0.087589f, 0.081160f, 0.131198f, 0.074141f, 0.076888f, -0.182785f, 0.074026f, -0.221778f, -0.070593f, 0.110173f, 0.133856f, -0.283121f, -0.039828f, 0.171583f, -0.078673f, 0.059444f, 0.111626f, -0.022888f, -0.068683f, -0.058878f, 0.054521f, 0.086632f, -0.216567f, 0.121033f, -0.248647f, 0.118411f, -0.241823f, 0.201051f, -0.058456f, 0.007993f, -0.139855f, -0.140071f, 0.128255f, 0.170755f, -0.056902f, 0.023687f, 0.106505f, 0.110976f, 0.034716f, 0.068922f, -0.015888f, 0.099014f, -0.255894f, -0.007388f, -0.029817f, 0.108241f, -0.153378f, 0.042206f, 0.031537f, 0.011611f, -0.106869f, 0.026029f, 0.061111f, 0.028064f, -0.038353f, 0.116139f, 0.204108f, -0.075297f, 0.036446f, -0.013495f, -0.130831f, -0.153705f, -0.037250f, 0.165136f, 0.092270f, 0.048462f, -0.036167f, -0.042340f, -0.147547f, -0.110811f, -0.085000f, -0.239695f, -0.085042f, 0.055347f, 0.071433f, 0.127263f, 0.231543f, 0.054459f, -0.049678f, -0.020745f, 0.003382f, -0.118822f, 0.000901f, 0.063912f, -0.122904f, 0.014899f, 0.017991f, -0.159263f, -0.078868f, -0.004888f, -0.085136f, -0.144950f, 0.184224f, -0.061015f, 0.012746f, -0.092295f, 0.197995f, -0.033515f, -0.036713f, 0.124933f, 0.120010f, -0.160342f, 0.125788f, 0.007197f, -0.012693f, -0.106882f, -0.280572f, 0.024867f, 0.003711f, 0.028727f, 0.106063f, 0.178201f, -0.107859f, 0.054557f, -0.075354f, 0.055920f, 0.069954f, 0.194835f, -0.109209f, -0.105995f, -0.037966f, -0.120269f, -0.240567f, 0.171602f, -0.164361f, -0.075441f, 0.041525f, -0.058458f, 0.118580f, -0.171127f, -0.025174f, -0.052618f, -0.156544f, 0.119812f, -0.074983f, -0.011078f, -0.080947f, -0.009698f, 0.153015f, -0.134440f, 0.095035f, 0.191258f, -0.076354f, 0.183750f, -0.151081f, -0.015054f, -0.015650f, 0.004548f, 0.227021f, -0.070167f, -0.080468f, -0.124600f, 0.037145f, -0.138321f, 0.170280f, 0.041664f, -0.031073f, -0.141118f, -0.131131f, -0.099925f, 0.010986f, 0.083898f, 0.062677f, 0.120999f, -0.111905f, 0.113349f, 0.109479f, -0.161891f, 0.085254f, 0.011553f, -0.231383f, -0.015916f, -0.016054f, -0.153080f, 0.139093f, 0.114954f, 0.104013f, -0.014671f, -0.019631f, 0.076658f, 0.036139f, -0.186146f, 0.017484f, 0.058512f, 0.064807f, -0.208988f, 0.075719f, -0.153718f, -0.074611f, -0.083036f, -0.051191f, 0.088587f, -0.014042f, -0.095042f, 0.100358f, 0.112418f, 0.093813f, -0.166890f, -0.088961f, 0.147078f, 0.051114f, -0.277298f, -0.115387f, -0.094764f, 0.122033f, -0.102747f, -0.065395f, -0.204113f, 0.044082f, 0.063539f, -0.040132f, 0.076537f, 0.077841f, -0.245146f, 0.009351f, -0.044364f, 0.032886f, 0.038675f, 0.060491f, 0.161588f, -0.060264f},
    {0.103242f, 0.044672f, -0.146704f, -0.183567f, 0.156851f, -0.068834f, 0.086515f, 0.278130f, -0.155061f, 0.225429f, -0.095893f, -0.364132f, -0.209148f, 0.259090f, 0.124182f, -0.260722f, 0.055420f, -0.030703f, -0.133920f, 0.045502f, 0.106743f, 0.000060f, 0.164176f, 0.006302f, 0.241394f, 0.016281f, 0.160942f, -0.078426f, 0.139094f, -0.179314f, -0.248533f, -0.077553f, -0.079502f, -0.066539f, 0.002103f, 0.150833f, -0.233324f, 0.110916f, -0.120344f, 0.038344f, 0.282502f, 0.051898f, 0.149656f, -0.175981f, 0.034047f, 0.160838f, 0.076685f, -0.163811f, -0.052516f, 0.102145f, -0.227266f, -0.113466f, 0.087630f, 0.106810f, -0.186921f, -0.094125f, -0.081489f, -0.072083f, 0.000045f, 0.056567f, 0.023521f, 0.024054f, -0.032576f, 0.091289f, -0.081833f, 0.139992f, -0.108774f, -0.142588f, -0.076867f, -0.018114f, 0.144055f, -0.271664f, -0.317318f, 0.122305f, -0.072945f, 0.190254f, -0.055992f, 0.006770f, 0.085038f, -0.012927f, 0.013711f, -0.096868f, -0.250392f, 0.040530f, 0.003045f, 0.184939f, 0.118433f, 0.062224f, 0.198135f, 0.048819f, -0.121688f, 0.146593f, -0.046751f, -0.097585f, -0.200648f, -0.056609f, -0.098100f, 0.143911f, -0.028253f, -0.185009f, 0.171310f, -0.161822f, 0.013153f, -0.242513f, 0.107012f, 0.140970f, -0.053988f, 0.101727f, -0.092350f, 0.168036f, 0.100664f, 0.122770f, -0.250072f, 0.114210f, 0.045653f, -0.094841f, 0.156861f, -0.244072f, 0.192823f, -0.121931f, 0.093684f, 0.004687f, -0.290124f, -0.139249f, -0.077443f, 0.016101f, -0.167094f, -0.012646f, -0.018487f, -0.112392f, 0.131239f, -0.161237f, 0.209357f, 0.117489f, -0.025771f, 0.007547f, 0.227514f, -0.237787f, -0.112900f, -0.262857f, 0.214708f, -0.294850f, 0.006234f, 0.249238f, 0.072703f, -0.091044f, -0.109551f, 0.161112f, 0.059015f, -0.260058f, -0.217781f, 0.147909f, 0.005178f, 0.068940f, 0.072320f, -0.099341f, 0.003732f, -0.130454f, -0.235953f, -0.139925f, 0.150755f, -0.068436f, 0.151850f, 0.160181f, 0.055158f, 0.018067f, -0.022758f, 0.026901f, -0.186074f, 0.007056f, -0.141248f, -0.043423f, 0.041244f, 0.040966f, 0.217961f, 0.040859f, 0.088979f, -0.085831f, 0.006153f, -0.175283f, -0.182397f, -0.014958f, -0.033654f, -0.270547f, -0.156627f, 0.042685f, 0.102137f, -0.122309f, 0.003380f, -0.138491f, -0.012134f, -0.156527f, -0.061067f, -0.020672f, -0.162527f, -0.198574f, -0.145481f, -0.376363f, -0.239445f, -0.012113f, 0.038349f, -0.086094f, -0.054910f, -0.195508f, 0.225470f, -0.072986f, -0.189667f, -0.020124f, -0.241901f, -0.096119f, 0.060749f, 0.176438f, -0.003781f, 0.041851f, 0.165642f, -0.304899f, -0.076049f, -0.033904f, -0.169089f, 0.099303f, 0.162344f, 0.115510f, 0.043567f, -0.144868f, 0.088476f, 0.165909f, 0.155086f, -0.082512f, 0.082057f, -0.231583f, -0.310501f, -0.270069f, 0.210605f, 0.050769f, -0.175491f, -0.147288f, -0.057939f, -0.147989f, -0.173883f, -0.003804f, 0.066040f, -0.243632f, -0.489133f, -0.009990f, 0.149525f, 0.060746f, -0.077025f, -0.168057f, 0.044935f, -0.190828f, 0.014070f, 0.123772f, -0.009620f, 0.111104f, 0.109575f, -0.043941f, 0.154219f, -0.254080f, -0.012908f, -0.173592f, -0.412656f, -0.035182f, -0.125825f, 0.061861f, 0.035498f, -0.136085f, -0.150195f, -0.122325f, -0.077278f, 0.084789f, -0.082934f, 0.131503f, 0.151216f, -0.034126f, 0.009330f, -0.008708f, -0.058295f, 0.117647f, 0.011831f, 0.105927f, 0.162551f, 0.108453f, 0.134414f, -0.107581f, -0.193599f, 0.046546f, -0.243228f, 0.040850f, 0.080412f, 0.027631f, -0.052394f, -0.068331f, -0.120978f, -0.185555f, 0.163576f, 0.031812f, -0.163840f, -0.252795f, -0.002048f, 0.019194f},
    {-0.053536f, -0.148293f, -0.131296f, -0.138941f, 0.162757f, 0.068311f, -0.047637f, -0.167464f, 0.201756f, -0.027018f, 0.140037f, -0.126219f, -0.029464f, -0.217830f, -0.188812f, 0.239134f, -0.070322f, -0.189068f, -0.068846f, -0.070825f, -0.073835f, -0.192040f, 0.116716f, 0.031893f, -0.072365f, 0.139879f, -0.174833f, 0.180902f, -0.026298f, 0.109734f, 0.042045f, 0.123565f, 0.147857f, -0.108662f, 0.177140f, 0.057415f, -0.025803f, -0.001065f, 0.051552f, -0.147366f, 0.004984f, -0.030060f, 0.040784f, 0.126024f, 0.010799f, -0.068935f, -0.064314f, -0.160747f, -0.060920f, -0.081631f, -0.127102f, 0.174901f, 0.083402f, -0.096795f, 0.098439f, -0.181539f, -0.006250f, 0.029766f, 0.016553f, -0.036575f, 0.211869f, 0.158172f, 0.080796f, 0.019884f, 0.054985f, -0.050892f, -0.233259f, -0.199221f, -0.097939f, 0.096982f, -0.113734f, 0.135230f, 0.007982f, 0.131724f, 0.075723f, 0.102715f, -0.131212f, 0.171367f, -0.116955f, 0.150681f, -0.033227f, 0.132655f, 0.162705f, -0.092116f, -0.099452f, 0.213225f, -0.092967f, 0.098831f, 0.069645f, -0.036548f, -0.231103f, -0.096873f, 0.162012f, -0.026478f, 0.049109f, 0.046968f, -0.032362f, 0.115515f, 0.114880f, -0.045590f, 0.159092f, -0.007723f, 0.068309f, 0.006557f, -0.032207f, -0.270702f, 0.172023f, -0.041125f, 0.152130f, 0.062565f, -0.209690f, 0.128517f, 0.023892f, -0.018470f, 0.073082f, 0.163413f, -0.128865f, 0.006852f, 0.147483f, 0.071226f, 0.097296f, -0.220776f, -0.094417f, -0.025451f, 0.109746f, -0.102641f, -0.058406f, 0.163788f, -0.162881f, 0.149835f, 0.049320f, 0.135458f, -0.048298f, -0.202157f, 0.134830f, 0.213488f, 0.051965f, -0.149130f, 0.056566f, 0.062484f, 0.004684f, 0.083525f, 0.182732f, 0.063569f, -0.144192f, -0.043307f, -0.143199f, -0.077092f, -0.089405f, -0.183402f, -0.167673f, -0.117229f, 0.112931f, 0.131090f, -0.127056f, 0.241142f, 0.021304f, -0.080886f, -0.171053f, -0.072973f, 0.064810f, 0.084934f, -0.153530f, -0.212613f, -0.032483f, -0.061656f, -0.144650f, -0.100881f, 0.126800f, 0.163119f, -0.038690f, 0.206090f, -0.048986f, 0.000225f, -0.117666f, 0.116693f, 0.162432f, 0.011460f, -0.015565f, 0.067677f, -0.173925f, 0.149125f, 0.021166f, -0.019081f, 0.017725f, -0.134536f, -0.156123f, 0.057357f, -0.023847f, 0.102612f, 0.195367f, 0.070336f, 0.038580f, 0.030945f, -0.109401f, 0.104627f, 0.008213f, 0.013210f, -0.039780f, -0.079106f, -0.017168f, -0.292917f, 0.130012f, -0.143023f, -0.152471f, -0.026438f, -0.168658f, -0.015447f, 0.007100f, -0.140263f, 0.171256f, -0.174386f, -0.062139f, 0.090364f, -0.073184f, -0.163562f, -0.004708f, -0.019547f, 0.094116f, -0.004045f, 0.141537f, 0.011218f, 0.045299f, 0.086626f, -0.026116f, 0.176318f, -0.174976f, 0.145770f, -0.006795f, -0.151572f, 0.000450f, 0.077597f, -0.273064f, -0.050336f, 0.072378f, 0.058149f, 0.093521f, 0.038974f, 0.099142f, 0.135750f, -0.068215f, -0.060532f, 0.201975f, 0.033768f, -0.111271f, 0.009710f, 0.085140f, 0.031553f, -0.019556f, -0.128178f, -0.084429f, -0.049049f, -0.094216f, -0.106535f, 0.092162f, 0.034206f, 0.081176f, 0.103041f, -0.041863f, 0.066954f, -0.067616f, 0.119658f, -0.101083f, 0.123419f, -0.057840f, -0.059143f, -0.169595f, 0.035835f, 0.074468f, -0.056638f, 0.059602f, -0.049050f, 0.039839f, -0.085883f, 0.114780f, -0.065350f, -0.131519f, -0.199631f, -0.094873f, -0.021834f, -0.214355f, 0.094955f, -0.219806f, -0.021017f, -0.157003f, -0.197680f, -0.195558f, -0.023621f, -0.027299f, -0.032118f, 0.009155f, -0.024146f, -0.297419f, -0.006557f, 0.137988f, -0.043874f, 0.066775f, -0.026990f, 0.155604f, 0.043087f},
    {0.038276f, 0.174795f, -0.163331f, -0.177517f, 0.124975f, 0.113836f, -0.172938f, -0.097550f, -0.211085f, -0.104589f, 0.113325f, -0.045136f, -0.001185f, -0.142854f, -0.287633f, -0.151260f, -0.012391f, 0.218374f, -0.016376f, -0.264472f, 0.058958f, 0.059966f, 0.092321f, -0.048890f, -0.092500f, -0.118079f, -0.123448f, -0.098716f, -0.130907f, -0.018920f, 0.111304f, -0.043544f, -0.130455f, 0.155329f, 0.160031f, 0.134874f, 0.172698f, 0.029705f, 0.165833f, -0.164522f, 0.059627f, -0.121765f, -0.153092f, -0.110961f, 0.011329f, 0.164182f, -0.093758f, -0.164275f, 0.112891f, 0.110394f, -0.071321f, -0.018916f, 0.005510f, -0.112681f, 0.127480f, -0.100579f, -0.050138f, 0.080269f, 0.070608f, -0.187269f, -0.132780f, -0.209111f, 0.106638f, -0.089857f, -0.132039f, 0.228823f, -0.024470f, -0.151140f, -0.013584f, 0.081458f, -0.202114f, -0.056257f, 0.090130f, -0.093263f, -0.071657f, -0.051926f, -0.152531f, -0.087272f, -0.000219f, -0.105893f, -0.138411f, 0.207177f, 0.147810f, 0.076036f, 0.119035f, -0.088364f, 0.105657f, -0.119478f, 0.133453f, 0.312451f, 0.044679f, 0.154303f, 0.025820f, -0.115583f, -0.040072f, 0.027132f, -0.148513f, -0.021337f, 0.268156f, -0.103915f, 0.024284f, 0.247682f, 0.280936f, 0.221150f, 0.008686f, 0.131174f, 0.052824f, -0.182873f, -0.112193f, 0.026630f, -0.143936f, 0.075803f, -0.005418f, -0.056073f, -0.065504f, 0.056265f, -0.010598f, -0.244962f, -0.185639f, -0.028791f, 0.105942f, -0.171557f, 0.042694f, -0.058345f, -0.082503f, 0.151881f, 0.042873f, -0.195743f, -0.056243f, -0.249091f, -0.008163f, -0.054381f, -0.144105f, -0.054376f, 0.090111f, 0.038961f, 0.232074f, -0.115495f, 0.080714f, 0.013916f, -0.035174f, 0.121539f, 0.069141f, 0.267525f, 0.031625f, -0.157589f, 0.156482f, -0.069131f, -0.024983f, -0.107834f, -0.008774f, -0.124100f, -0.096197f, 0.266970f, -0.159493f, -0.044130f, -0.214506f, -0.164116f, -0.257865f, -0.149162f, 0.095680f, -0.083510f, 0.051714f, -0.064499f, -0.048678f, -0.049565f, -0.010093f, -0.042613f, -0.085441f, -0.045969f, 0.119822f, 0.096772f, 0.140037f, -0.050994f, 0.077207f, -0.089331f, 0.119844f, -0.097221f, 0.022882f, -0.188669f, -0.139235f, 0.145440f, -0.111867f, -0.116067f, -0.280956f, 0.248775f, -0.040015f, -0.051659f, 0.070024f, 0.051895f, -0.062129f, 0.020711f, 0.030262f, -0.005219f, -0.073919f, 0.115560f, -0.045845f, -0.077120f, -0.115762f, -0.186249f, -0.175971f, 0.066048f, -0.125165f, -0.046347f, 0.042523f, -0.141668f, 0.046841f, -0.132689f, -0.086405f, -0.171834f, -0.132816f, -0.170305f, 0.067735f, 0.257744f, -0.091594f, 0.123477f, 0.040987f, 0.203806f, -0.039820f, -0.121737f, -0.159261f, 0.092257f, 0.125138f, -0.151458f, -0.079864f, 0.140111f, 0.091376f, 0.188087f, 0.106025f, -0.060307f, -0.049815f, -0.020987f, -0.195562f, -0.127012f, 0.190644f, -0.167575f, 0.086850f, 0.015693f, 0.020769f, -0.254007f, -0.079176f, -0.023904f, -0.051632f, 0.033398f, 0.149610f, -0.200770f, 0.060590f, -0.032372f, 0.017771f, 0.064365f, 0.167870f, 0.024467f, 0.032888f, -0.066697f, 0.243729f, -0.001471f, 0.090888f, 0.173766f, -0.099227f, 0.022596f, -0.140253f, -0.178183f, -0.080091f, 0.105028f, 0.143192f, 0.014875f, 0.011295f, 0.049366f, 0.284870f, 0.001162f, -0.035078f, -0.156345f, 0.126931f, 0.092388f, -0.070314f, -0.181582f, 0.133606f, -0.291892f, 0.178430f, 0.215499f, -0.115918f, -0.132523f, 0.024979f, 0.128531f, -0.137517f, 0.158884f, -0.187991f, 0.072120f, 0.032654f, 0.131977f, -0.098692f, 0.200544f, -0.022014f, -0.093665f, -0.213840f, 0.223951f, -0.131648f, -0.057651f, -0.104609f, 0.140181f},
    {-0.000000f, -0.000000f, 0.000000f, 0.000000f, -0.000000f, -0.000000f, -0.000000f, -0.000000f, 0.000000f, -0.000000f, 0.000000f, 0.000000f, 0.000000f, 0.000000f, 0.000000f, -0.000000f, 0.000000f, 0.000000f, 0.000000f, -0.000000f, 0.000000f, 0.000000f, 0.000000f, -0.000000f, -0.000000f, -0.000000f, 0.000000f, 0.000000f, -0.000000f, -0.000000f, 0.000000f, -0.000000f, -0.000000f, 0.000000f, 0.000000f, 0.000000f, 0.000000f, 0.000000f, 0.000000f, 0.000000f, -0.000000f, -0.000000f, -0.000000f, 0.000000f, -0.000000f, 0.000000f, 0.000000f, -0.000000f, -0.000000f, 0.000000f, 0.000000f, 0.000000f, -0.000000f, 0.000000f, 0.000000f, -0.000000f, 0.000000f, -0.000000f, -0.000000f, 0.000000f, 0.000000f, 0.000000f, 0.000000f, 0.000000f, -0.000000f, -0.000000f, -0.000000f, -0.000000f, 0.000000f, 0.000000f, 0.000000f, 0.000000f, -0.000000f, -0.000000f, 0.000000f, 0.000000f, 0.000000f, -0.000000f, -0.000000f, 0.000000f, -0.000000f, -0.000000f, 0.000000f, 0.000000f, -0.000000f, -0.000000f, 0.000000f, -0.000000f, -0.000000f, -0.000000f, -0.000000f, -0.000000f, -0.000000f, 0.000000f, 0.000000f, -0.000000f, 0.000000f, 0.000000f, -0.000000f, 0.000000f, 0.000000f, -0.000000f, 0.000000f, 0.000000f, -0.000000f, 0.000000f, -0.000000f, -0.000000f, -0.000000f, 0.000000f, -0.000000f, -0.000000f, -0.000000f, 0.000000f, 0.000000f, -0.000000f, -0.000000f, -0.000000f, 0.000000f, -0.000000f, -0.000000f, 0.000000f, 0.000000f, -0.000000f, 0.000000f, 0.000000f, -0.000000f, -0.000000f, 0.000000f, -0.000000f, 0.000000f, 0.000000f, -0.000000f, 0.000000f, 0.000000f, 0.000000f, 0.000000f, -0.000000f, -0.000000f, 0.000000f, 0.000000f, 0.000000f, 0.000000f, -0.000000f, -0.000000f, 0.000000f, 0.000000f, 0.000000f, 0.000000f, -0.000000f, -0.000000f, 0.000000f, 0.000000f, -0.000000f, -0.000000f, -0.000000f, -0.000000f, 0.000000f, 0.000000f, -0.000000f, 0.000000f, -0.000000f, 0.000000f, -0.000000f, -0.000000f, -0.000000f, -0.000000f, -0.000000f, -0.000000f, 0.000000f, 0.000000f, 0.000000f, -0.000000f, 0.000000f, 0.000000f, 0.000000f, 0.000000f, -0.000000f, -0.000000f, 0.000000f, -0.000000f, 0.000000f, 0.000000f, 0.000000f, 0.000000f, 0.000000f, -0.000000f, 0.000000f, 0.000000f, 0.000000f, 0.000000f, 0.000000f, 0.000000f, 0.000000f, -0.000000f, -0.000000f, 0.000000f, -0.000000f, 0.000000f, -0.000000f, -0.000000f, 0.000000f, -0.000000f, -0.000000f, 0.000000f, -0.000000f, -0.000000f, -0.000000f, 0.000000f, -0.000000f, 0.000000f, 0.000000f, -0.000000f, 0.000000f, -0.000000f, 0.000000f, 0.000000f, 0.000000f, 0.000000f, 0.000000f, 0.000000f, 0.000000f, -0.000000f, -0.000000f, 0.000000f, 0.000000f, -0.000000f, -0.000000f, -0.000000f, 0.000000f, 0.000000f, 0.000000f, -0.000000f, -0.000000f, -0.000000f, 0.000000f, 0.000000f, -0.000000f, 0.000000f, 0.000000f, -0.000000f, 0.000000f, 0.000000f, 0.000000f, -0.000000f, -0.000000f, 0.000000f, 0.000000f, 0.000000f, -0.000000f, 0.000000f, 0.000000f, 0.000000f, 0.000000f, 0.000000f, 0.000000f, -0.000000f, 0.000000f, -0.000000f, 0.000000f, 0.000000f, 0.000000f, -0.000000f, -0.000000f, 0.000000f, 0.000000f, -0.000000f, -0.000000f, -0.000000f, 0.000000f, -0.000000f, -0.000000f, -0.000000f, 0.000000f, -0.000000f, 0.000000f, 0.000000f, 0.000000f, -0.000000f, 0.000000f, -0.000000f, 0.000000f, -0.000000f, -0.000000f, 0.000000f, -0.000000f, -0.000000f, 0.000000f, -0.000000f, 0.000000f, 0.000000f, -0.000000f, 0.000000f, -0.000000f, -0.000000f, 0.000000f, -0.000000f, 0.000000f, -0.000000f, 0.000000f},
    {-0.130837f, 0.197188f, 0.092891f, -0.090124f, -0.075656f, 0.049643f, -0.028438f, -0.188177f, -0.000037f, -0.009049f, 0.146112f, 0.011534f, 0.084647f, -0.175136f, -0.135471f, 0.009868f, -0.038933f, -0.199361f, 0.169999f, 0.142658f, 0.025444f, -0.255236f, 0.061411f, 0.035213f, 0.104090f, 0.129141f, 0.278031f, 0.029249f, -0.233022f, 0.046489f, 0.004141f, 0.174187f, -0.114787f, -0.282602f, 0.084069f, 0.098036f, 0.107142f, 0.095486f, 0.014949f, 0.095541f, 0.136316f, 0.120776f, -0.049863f, -0.147448f, 0.075023f, 0.107045f, -0.109826f, -0.029097f, -0.167523f, -0.117703f, -0.180242f, -0.029094f, 0.163463f, -0.016106f, -0.144647f, -0.254762f, 0.097881f, -0.176084f, 0.224333f, 0.098003f, 0.170830f, -0.055999f, 0.054893f, -0.147728f, 0.207877f, 0.017443f, -0.174152f, -0.075629f, -0.077440f, 0.071014f, -0.150392f, 0.019922f, -0.179349f, 0.094963f, 0.108994f, 0.115638f, 0.162871f, -0.079871f, -0.235398f, 0.102973f, -0.130781f, -0.032046f, -0.256285f, -0.166872f, -0.273686f, 0.185972f, -0.149810f, 0.009550f, -0.245707f, 0.054451f, -0.212878f, 0.140760f, 0.148916f, -0.033015f, 0.228175f, 0.241737f, 0.166866f, 0.123716f, -0.032802f, 0.129952f, -0.262104f, -0.141274f, 0.164410f, -0.157879f, 0.090643f, 0.026644f, 0.113799f, 0.234889f, -0.088669f, -0.209296f, -0.073633f, -0.122817f, -0.294416f, -0.049313f, 0.089720f, 0.054599f, -0.037676f, 0.083066f, -0.100133f, -0.239063f, 0.123240f, -0.094564f, 0.040404f, -0.238058f, 0.098716f, -0.003755f, 0.006225f, 0.045937f, 0.146043f, 0.033865f, 0.115364f, 0.270017f, 0.020944f, 0.001413f, 0.141563f, -0.041463f, -0.129381f, 0.057890f, 0.152851f, 0.150186f, -0.030176f, -0.021036f, -0.129083f, 0.108699f, 0.161627f, 0.054085f, 0.175725f, 0.082919f, 0.014540f, -0.198117f, -0.108234f, 0.106819f, 0.002037f, -0.020056f, 0.191304f, -0.161874f, 0.041013f, 0.121799f, 0.131014f, -0.000921f, -0.116779f, -0.177418f, 0.058336f, 0.007858f, -0.110441f, 0.113501f, 0.003632f, 0.058755f, 0.187763f, -0.132772f, -0.228476f, 0.187914f, -0.048526f, 0.064779f, 0.101478f, 0.162569f, 0.165982f, -0.032751f, -0.086545f, 0.036612f, -0.215082f, 0.011348f, -0.154364f, 0.182737f, 0.056538f, -0.057125f, -0.085193f, -0.234422f, -0.193572f, -0.110319f, -0.147999f, 0.140009f, 0.125140f, 0.210451f, 0.182084f, -0.155473f, 0.123087f, 0.245851f, -0.027247f, 0.078467f, -0.160565f, 0.085542f, 0.168481f, -0.302954f, 0.087002f, 0.066284f, 0.199517f, -0.040129f, 0.153985f, -0.222579f, -0.154870f, -0.245924f, 0.200028f, 0.140208f, 0.237757f, 0.120735f, -0.226053f, 0.025865f, -0.210954f, -0.090444f, -0.085396f, -0.081556f, -0.065542f, -0.209832f, -0.136750f, -0.238693f, 0.127103f, 0.135098f, 0.170081f, -0.202008f, -0.113433f, 0.213718f, -0.158573f, -0.059588f, -0.077478f, -0.168188f, -0.176719f, -0.060205f, 0.036435f, -0.187006f, -0.141544f, 0.161071f, -0.074410f, -0.153264f, 0.119895f, -0.141686f, -0.212203f, -0.061980f, -0.071947f, 0.038409f, 0.143131f, -0.217902f, -0.114707f, -0.021970f, -0.061292f, 0.026307f, -0.076314f, -0.104285f, -0.284462f, 0.004853f, -0.232835f, 0.167354f, -0.190402f, -0.026420f, -0.004127f, 0.083851f, -0.089080f, 0.132341f, 0.113051f, 0.205116f, -0.042544f, -0.007867f, 0.103641f, 0.187817f, 0.188927f, -0.151447f, -0.280897f, 0.025300f, 0.077704f, -0.000554f, -0.013511f, 0.168176f, -0.098794f, 0.143669f, -0.124597f, -0.085609f, 0.055739f, 0.105116f, -0.155799f, -0.155112f, 0.169910f, -0.165028f, -0.068043f, 0.062890f, 0.057258f, 0.069975f, -0.069756f, 0.051232f, -0.038936f, -0.005265f},
    {-0.034484f, 0.002623f, -0.120306f, -0.016069f, -0.254147f, -0.144625f, 0.198870f, -0.068687f, 0.172910f, 0.144091f, 0.065160f, -0.086876f, -0.023338f, 0.085938f, -0.007279f, -0.289636f, -0.081617f, 0.214341f, 0.097765f, -0.123715f, 0.063566f, -0.023788f, -0.108980f, 0.152982f, -0.086191f, -0.081803f, -0.066362f, 0.126805f, 0.051129f, 0.042507f, 0.100495f, -0.157409f, -0.023715f, 0.007652f, -0.164109f, 0.044152f, 0.185067f, -0.209683f, -0.074154f, -0.033750f, -0.073648f, 0.122269f, 0.033231f, -0.019735f, 0.111787f, -0.055784f, -0.026746f, 0.017324f, 0.082879f, 0.290790f, 0.111763f, -0.062464f, 0.144953f, -0.134457f, -0.231790f, -0.115404f, -0.034926f, 0.055837f, 0.068816f, 0.050240f, -0.093247f, 0.074975f, -0.216313f, -0.235554f, 0.057518f, -0.025260f, 0.196389f, -0.084647f, -0.063796f, 0.021333f, -0.112980f, -0.164232f, -0.006711f, -0.203024f, 0.036142f, -0.082701f, -0.023082f, -0.103397f, 0.047795f, -0.223103f, 0.060664f, -0.081455f, -0.001271f, -0.136252f, 0.129439f, 0.034442f, 0.183534f, -0.043029f, -0.247068f, -0.183846f, 0.112800f, -0.079081f, 0.177790f, -0.047979f, -0.197368f, -0.107659f, 0.127453f, -0.012541f, 0.238925f, -0.108380f, -0.103028f, 0.246517f, -0.095695f, 0.142791f, 0.136028f, 0.080553f, 0.085950f, -0.164759f, -0.013067f, 0.286978f, -0.233704f, 0.114136f, 0.100098f, 0.065934f, 0.233776f, -0.116763f, 0.029048f, -0.243090f, -0.126969f, -0.135499f, -0.062528f, 0.236889f, 0.195958f, -0.093140f, -0.020313f, 0.293207f, -0.278980f, -0.106821f, -0.210973f, 0.029330f, -0.077342f, 0.127601f, -0.059535f, 0.059419f, -0.079025f, -0.082925f, 0.099678f, 0.200791f, 0.117121f, 0.055941f, 0.103883f, 0.094502f, 0.153891f, -0.118062f, -0.184495f, -0.247205f, 0.105894f, -0.021709f, -0.038671f, 0.177363f, 0.170391f, 0.208822f, -0.171482f, 0.144143f, -0.049701f, -0.146656f, -0.273573f, 0.084795f, 0.082377f, 0.164964f, -0.227345f, 0.087871f, 0.037947f, -0.175797f, 0.032624f, -0.079570f, -0.005726f, -0.011330f, -0.118206f, -0.194606f, -0.013539f, 0.164898f, -0.112270f, 0.082913f, 0.029995f, 0.168748f, 0.148758f, 0.090616f, 0.115946f, 0.121617f, -0.018758f, -0.262853f, -0.230994f, 0.104118f, 0.135455f, -0.097844f, -0.002409f, -0.110421f, -0.146721f, 0.080123f, -0.181801f, -0.189808f, 0.087542f, 0.064110f, -0.131754f, 0.099379f, 0.060642f, -0.107234f, -0.003378f, -0.153005f, -0.047923f, 0.250480f, 0.161424f, 0.224145f, -0.027620f, 0.234701f, 0.056284f, -0.159923f, -0.089893f, -0.092115f, 0.107624f, -0.034532f, -0.064000f, 0.012217f, -0.102337f, 0.087136f, -0.023785f, 0.118988f, 0.119617f, -0.142170f, -0.072006f, 0.021728f, 0.198882f, -0.073473f, -0.208770f, -0.249545f, -0.061137f, -0.046481f, 0.096665f, -0.069863f, -0.060092f, 0.100830f, 0.134682f, 0.034993f, 0.058056f, 0.010352f, 0.213049f, -0.081341f, 0.182317f, -0.116940f, 0.017332f, -0.089735f, -0.126511f, -0.130717f, -0.044960f, 0.093736f, 0.149080f, 0.087241f, 0.136796f, -0.185960f, -0.029254f, -0.099347f, 0.167298f, 0.202244f, 0.074856f, -0.299685f, -0.011954f, 0.032703f, -0.040638f, 0.163214f, 0.101541f, 0.057585f, -0.024068f, -0.213618f, -0.095902f, -0.038538f, -0.022831f, 0.061416f, 0.054741f, -0.197104f, -0.031339f, -0.018657f, -0.212944f, 0.079569f, -0.164521f, 0.041105f, -0.001130f, 0.180234f, 0.009327f, -0.152412f, -0.091749f, 0.151130f, 0.172513f, -0.168372f, 0.151031f, 0.226052f, 0.181019f, 0.043025f, 0.076819f, -0.036125f, 0.115789f, -0.012828f, 0.056710f, 0.014136f, 0.062805f, 0.192756f, -0.204332f, 0.130022f, 0.041430f, 0.131652f},
    {0.062290f, -0.128683f, 0.150139f, -0.291409f, 0.146542f, -0.047526f, 0.015993f, -0.075676f, 0.004287f, 0.014515f, -0.149596f, -0.108296f, -0.374164f, 0.170350f, 0.191240f, -0.129315f, 0.058986f, -0.024232f, 0.027046f, 0.144697f, 0.313606f, -0.174980f, 0.098496f, -0.092033f, 0.150123f, -0.230029f, 0.112334f, 0.092860f, 0.006592f, -0.289696f, 0.208307f, -0.094649f, 0.131857f, -0.097145f, -0.131977f, -0.038384f, -0.150008f, -0.185641f, 0.003106f, -0.150958f, 0.112946f, 0.123643f, -0.111693f, -0.145881f, -0.110539f, -0.197016f, -0.002283f, -0.074828f, -0.042686f, -0.048948f, -0.148061f, 0.159770f, 0.146656f, -0.287840f, -0.111603f, 0.150248f, 0.190826f, -0.137742f, -0.173859f, -0.354990f, -0.009005f, -0.012220f, -0.107584f, -0.043608f, -0.118069f, 0.100018f, 0.036747f, -0.099377f, 0.077890f, 0.002605f, 0.213423f, -0.083198f, -0.105953f, 0.057864f, -0.085845f, 0.128270f, -0.055222f, -0.080312f, -0.115767f, -0.091002f, 0.130098f, 0.124180f, -0.078510f, -0.001450f, 0.141798f, 0.179027f, -0.088596f, -0.056932f, 0.007156f, 0.130998f, -0.221687f, -0.115030f, 0.048298f, -0.383668f, -0.059477f, -0.070702f, -0.061970f, -0.090955f, 0.005675f, -0.279950f, 0.042559f, 0.147052f, 0.074515f, -0.169180f, -0.090394f, 0.046089f, -0.051833f, -0.027754f, 0.043094f, -0.099020f, -0.315173f, -0.012829f, 0.070863f, -0.210160f, 0.026393f, -0.058088f, 0.177088f, 0.149094f, 0.036728f, -0.030502f, 0.023207f, 0.066700f, 0.073870f, 0.052173f, 0.065781f, 0.091662f, -0.190280f, -0.081413f, 0.042196f, -0.134985f, 0.031695f, -0.085550f, -0.059731f, 0.132134f, -0.076063f, 0.266286f, 0.073142f, 0.038741f, 0.063683f, -0.011638f, 0.128181f, -0.119450f, -0.023057f, -0.021168f, -0.114454f, 0.007714f, -0.023638f, 0.076539f, 0.196173f, -0.181760f, 0.161467f, 0.121480f, 0.118051f, -0.000581f, 0.041554f, -0.334819f, 0.097038f, -0.243385f, 0.097197f, 0.081557f, -0.073595f, -0.273538f, 0.129050f, -0.033721f, 0.122589f, -0.003773f, -0.190427f, 0.171724f, -0.103668f, 0.127998f, -0.051068f, 0.059578f, 0.044446f, 0.023043f, 0.086947f, 0.006817f, -0.053639f, -0.053102f, 0.175245f, -0.114055f, 0.039717f, 0.010478f, 0.027730f, 0.045382f, -0.199284f, -0.181220f, -0.160094f, 0.007252f, 0.148428f, -0.144976f, 0.102905f, -0.257688f, 0.010732f, 0.109074f, 0.012470f, 0.049386f, -0.171807f, -0.228055f, -0.255463f, -0.187871f, 0.048928f, 0.063291f, -0.053024f, -0.086865f, -0.020804f, 0.057525f, 0.187676f, -0.184388f, 0.204986f, 0.020148f, 0.000310f, 0.054453f, -0.167034f, -0.132973f, 0.056311f, -0.117995f, 0.109853f, 0.075163f, -0.228141f, 0.057266f, -0.010729f, 0.059769f, 0.008921f, 0.036366f, 0.104662f, 0.125029f, 0.092235f, 0.161951f, -0.010293f, -0.345121f, -0.141845f, -0.151771f, 0.017628f, 0.020533f, 0.062391f, -0.347523f, 0.083313f, -0.213559f, -0.020131f, -0.000875f, -0.051135f, -0.259969f, -0.266947f, 0.122568f, 0.102201f, 0.059476f, -0.125919f, -0.096256f, 0.090728f, 0.096579f, -0.271208f, -0.196645f, 0.140617f, -0.082327f, 0.009878f, -0.192216f, 0.069540f, 0.124426f, 0.103692f, -0.045957f, -0.060979f, -0.113137f, 0.108551f, -0.080950f, 0.066682f, -0.063647f, -0.079690f, -0.246285f, 0.034871f, -0.263925f, -0.117306f, 0.175090f, 0.061804f, 0.105067f, 0.117550f, 0.181427f, 0.003836f, 0.118445f, -0.131584f, 0.040886f, -0.005521f, 0.096007f, 0.101161f, -0.129345f, -0.180980f, 0.019452f, -0.222640f, -0.025779f, 0.110130f, 0.074703f, 0.047712f, 0.097495f, -0.100325f, 0.023863f, -0.059636f, -0.136196f, -0.399511f, -0.101955f, -0.001122f, 0.100783f},
    {0.161663f, -0.098311f, -0.141165f, 0.179070f, -0.289908f, -0.063556f, 0.133644f, 0.001077f, -0.055433f, -0.107469f, -0.059732f, 0.036068f, 0.028490f, -0.067598f, 0.062822f, -0.088584f, -0.224051f, 0.120888f, 0.069560f, -0.107420f, -0.042010f, 0.090915f, 0.073275f, 0.135751f, 0.005320f, 0.049393f, 0.032706f, 0.060691f, -0.037466f, -0.072946f, 0.082996f, -0.047850f, -0.055324f, 0.162029f, -0.181570f, -0.001016f, -0.046664f, -0.006562f, 0.037568f, 0.005769f, 0.043006f, -0.022458f, 0.111688f, -0.018878f, 0.017662f, 0.159286f, -0.089265f, -0.063001f, 0.078776f, 0.283185f, 0.005819f, -0.160157f, 0.012379f, -0.039977f, -0.195406f, 0.007696f, 0.139477f, 0.043298f, -0.000616f, -0.084072f, -0.203616f, 0.178367f, -0.117565f, -0.138050f, 0.085864f, -0.022906f, 0.142463f, -0.111492f, 0.149377f, 0.156319f, -0.003609f, 0.086592f, -0.162108f, -0.105634f, 0.034280f, -0.000868f, 0.044012f, -0.111830f, -0.137249f, -0.224547f, -0.102409f, 0.086381f, -0.156349f, -0.187008f, 0.094482f, 0.039794f, 0.167951f, 0.009880f, -0.173493f, 0.028260f, 0.039308f, -0.202574f, 0.122091f, 0.143783f, -0.184458f, -0.033218f, -0.096070f, -0.151809f, 0.100059f, -0.013114f, -0.250806f, 0.318989f, 0.024557f, 0.073157f, 0.103025f, -0.143630f, 0.015116f, -0.070587f, 0.140619f, 0.237885f, -0.157131f, 0.172061f, -0.060229f, 0.140375f, 0.228095f, -0.154872f, 0.132550f, -0.258159f, -0.142612f, -0.066827f, -0.001744f, 0.260469f, 0.119413f, -0.008871f, 0.099888f, 0.300075f, -0.286345f, 0.136522f, -0.232875f, 0.093466f, -0.038552f, -0.101732f, -0.062834f, 0.097372f, -0.042778f, -0.201974f, 0.087471f, 0.244207f, 0.012141f, -0.040368f, -0.023517f, -0.113906f, 0.172529f, 0.094919f, -0.023131f, -0.213008f, 0.144776f, 0.018280f, 0.075336f, 0.110154f, 0.136618f, 0.121805f, -0.149698f, 0.216765f, 0.027035f, -0.028993f, -0.267259f, 0.167283f, 0.123708f, -0.007419f, -0.244781f, 0.058191f, 0.101975f, -0.112990f, -0.040026f, 0.017112f, -0.144990f, -0.011770f, -0.112645f, -0.179150f, -0.107744f, 0.022643f, -0.194190f, -0.006373f, -0.011486f, 0.045098f, 0.030555f, 0.165396f, -0.026696f, 0.014734f, -0.108902f, -0.339988f, -0.077230f, 0.034571f, 0.161275f, 0.029980f, 0.103525f, -0.224687f, -0.154614f, -0.176910f, -0.193306f, -0.052283f, 0.100506f, -0.126023f, 0.115401f, 0.148924f, -0.002186f, -0.110063f, 0.003420f, -0.273467f, -0.094582f, 0.131271f, 0.008928f, 0.053031f, 0.174155f, 0.155486f, 0.195666f, -0.215013f, -0.003029f, 0.047605f, -0.059519f, -0.161108f, 0.059574f, 0.020289f, -0.059686f, 0.064890f, -0.007881f, -0.101206f, -0.010085f, -0.228226f, -0.145224f, 0.180062f, 0.145224f, 0.038198f, -0.182580f, -0.169274f, -0.126724f, -0.156110f, -0.087090f, 0.092264f, 0.021309f, 0.031119f, 0.039430f, 0.184515f, -0.044410f, 0.012385f, 0.054041f, 0.105200f, 0.200050f, -0.240748f, 0.113907f, 0.134662f, -0.191477f, -0.132982f, 0.027334f, 0.181969f, -0.066829f, 0.155049f, 0.030022f, -0.005789f, -0.025300f, 0.027835f, 0.228459f, 0.164995f, 0.128591f, -0.305017f, 0.078349f, -0.080816f, -0.036769f, 0.087965f, -0.009545f, 0.032894f, 0.143019f, -0.247569f, 0.060508f, -0.025593f, -0.097199f, -0.076271f, 0.134451f, 0.029052f, 0.108865f, 0.203063f, -0.204435f, -0.051790f, 0.004515f, 0.064117f, 0.066943f, 0.037481f, 0.022432f, -0.061756f, -0.185062f, 0.081090f, 0.058586f, -0.071380f, -0.032660f, 0.171756f, -0.059301f, -0.031182f, 0.119999f, 0.008243f, -0.016351f, 0.032968f, 0.028576f, 0.115133f, 0.068035f, 0.134388f, -0.101909f, -0.059762f, -0.035115f, 0.014373f},
    {0.064602f, 0.023698f, -0.125281f, -0.136512f, 0.056427f, -0.051239f, 0.132268f, -0.185866f, -0.024324f, 0.219413f, -0.067287f, 0.124369f, -0.088657f, -0.032660f, -0.001061f, 0.061697f, 0.100043f, 0.085953f, -0.167055f, -0.155453f, 0.187822f, 0.003425f, 0.077342f, 0.006472f, 0.175065f, -0.118966f, 0.105598f, 0.189843f, -0.031923f, -0.052205f, -0.106263f, -0.210183f, -0.067461f, -0.148389f, -0.073575f, -0.035536f, -0.111918f, -0.020080f, -0.239610f, -0.024176f, -0.301627f, -0.043536f, -0.123341f, -0.036151f, -0.024494f, 0.218182f, -0.270392f, 0.028660f, 0.003334f, 0.105086f, 0.153656f, -0.238628f, -0.134845f, 0.113604f, -0.028053f, 0.040178f, 0.089487f, -0.015453f, 0.174257f, 0.168318f, 0.121109f, -0.075753f, 0.151357f, -0.196269f, -0.175796f, 0.165767f, -0.131882f, -0.146819f, -0.156002f, 0.084042f, -0.066965f, 0.132301f, -0.102985f, -0.020004f, 0.061538f, -0.097340f, 0.025917f, -0.087251f, 0.136823f, 0.046737f, 0.234949f, -0.191763f, 0.114569f, 0.072033f, 0.026227f, 0.156266f, -0.023042f, -0.083900f, 0.087721f, -0.001988f, -0.035756f, -0.109193f, -0.150649f, -0.081198f, -0.062285f, -0.021571f, 0.090395f, -0.144989f, -0.009783f, -0.025178f, -0.200125f, 0.029023f, 0.240753f, -0.022764f, 0.123844f, 0.075338f, 0.198356f, -0.136267f, 0.275058f, -0.053923f, -0.068374f, -0.180881f, -0.014530f, -0.164320f, -0.173585f, -0.196385f, 0.178065f, 0.121117f, -0.179912f, 0.103588f, 0.037893f, 0.081300f, -0.086989f, 0.082259f, 0.241135f, 0.029514f, -0.121012f, -0.082910f, 0.072438f, -0.014397f, -0.186969f, -0.135947f, 0.192573f, 0.165410f, -0.150131f, 0.127782f, -0.087971f, 0.073044f, 0.054342f, 0.163246f, 0.239827f, -0.074013f, 0.144398f, -0.177859f, 0.107343f, 0.077906f, 0.085778f, 0.039877f, 0.333141f, -0.117456f, -0.131601f, 0.074641f, -0.011801f, 0.083449f, 0.006794f, -0.077863f, 0.087089f, 0.040342f, -0.112207f, 0.133345f, -0.035064f, 0.046545f, -0.015617f, 0.020991f, 0.080071f, -0.001164f, -0.125185f, 0.188277f, 0.048140f, 0.017031f, -0.049503f, 0.093809f, 0.025425f, -0.227327f, 0.046924f, 0.189747f, -0.098131f, 0.128797f, 0.078669f, 0.067894f, -0.110531f, -0.122397f, 0.117177f, -0.031058f, 0.091829f, -0.029779f, -0.209903f, -0.170462f, 0.007734f, 0.159170f, -0.072198f, -0.115542f, -0.147908f, -0.019021f, 0.040448f, 0.145847f, -0.072634f, -0.037936f, -0.075398f, 0.135834f, -0.026559f, -0.160668f, 0.076002f, 0.086017f, -0.114529f, 0.012908f, 0.120265f, -0.139678f, 0.166378f, 0.067365f, 0.027765f, -0.024123f, -0.070606f, 0.160167f, 0.066987f, -0.047892f, 0.016483f, 0.150488f, -0.107728f, 0.164918f, 0.028147f, -0.163387f, -0.157868f, -0.050846f, -0.041316f, -0.232893f, 0.121847f, 0.139200f, 0.095998f, -0.210822f, -0.147865f, -0.258194f, -0.038177f, 0.227114f, -0.060645f, -0.191676f, -0.041168f, -0.051482f, -0.106965f, 0.063315f, 0.123251f, -0.141145f, -0.156304f, 0.164944f, -0.116002f, -0.207373f, -0.182182f, -0.235555f, 0.026463f, 0.043634f, -0.070125f, 0.040068f, 0.088336f, -0.056585f, 0.164246f, 0.098424f, -0.244373f, 0.203944f, 0.002380f, 0.208202f, -0.012426f, 0.237040f, 0.075027f, -0.100249f, 0.132176f, 0.169067f, 0.177349f, -0.097130f, 0.116558f, -0.075321f, -0.229285f, 0.049722f, -0.190280f, 0.193175f, -0.126968f, 0.226367f, -0.159899f, -0.102299f, -0.096040f, -0.083522f, -0.235293f, -0.087395f, -0.010917f, -0.028416f, -0.029742f, -0.187007f, 0.056265f, 0.125542f, -0.065936f, -0.080975f, -0.124188f, 0.302062f, -0.081631f, -0.033868f, -0.048777f, -0.009216f, -0.085586f, 0.053537f, -0.178699f, 0.028496f},
    {0.000000f, 0.000000f, -0.000000f, -0.000000f, 0.000000f, 0.000000f, -0.000000f, 0.000000f, 0.000000f, -0.000000f, 0.000000f, -0.000000f, -0.000000f, 0.000000f, 0.000000f, -0.000000f, -0.000000f, -0.000000f, 0.000000f, 0.000000f, -0.000000f, 0.000000f, -0.000000f, -0.000000f, 0.000000f, -0.000000f, -0.000000f, 0.000000f, 0.000000f, 0.000000f, -0.000000f, -0.000000f, 0.000000f, -0.000000f, -0.000000f, -0.000000f, -0.000000f, -0.000000f, 0.000000f, 0.000000f, 0.000000f, 0.000000f, 0.000000f, 0.000000f, -0.000000f, -0.000000f, 0.000000f, 0.000000f, -0.000000f, -0.000000f, 0.000000f, -0.000000f, 0.000000f, 0.000000f, -0.000000f, -0.000000f, 0.000000f, -0.000000f, 0.000000f, 0.000000f, 0.000000f, 0.000000f, 0.000000f, -0.000000f, -0.000000f, -0.000000f, -0.000000f, 0.000000f, -0.000000f, -0.000000f, -0.000000f, -0.000000f, -0.000000f, 0.000000f, 0.000000f, 0.000000f, 0.000000f, 0.000000f, 0.000000f, 0.000000f, 0.000000f, 0.000000f, -0.000000f, 0.000000f, -0.000000f, -0.000000f, -0.000000f, 0.000000f, -0.000000f, -0.000000f, -0.000000f, -0.000000f, 0.000000f, -0.000000f, -0.000000f, -0.000000f, 0.000000f, 0.000000f, 0.000000f, 0.000000f, 0.000000f, -0.000000f, 0.000000f, 0.000000f, -0.000000f, 0.000000f, -0.000000f, 0.000000f, 0.000000f, -0.000000f, -0.000000f, 0.000000f, -0.000000f, -0.000000f, 0.000000f, 0.000000f, 0.000000f, 0.000000f, 0.000000f, 0.000000f, 0.000000f, -0.000000f, -0.000000f, -0.000000f, -0.000000f, -0.000000f, -0.000000f, -0.000000f, 0.000000f, 0.000000f, 0.000000f, 0.000000f, -0.000000f, 0.000000f, 0.000000f, 0.000000f, -0.000000f, 0.000000f, -0.000000f, -0.000000f, 0.000000f, 0.000000f, 0.000000f, 0.000000f, -0.000000f, 0.000000f, 0.000000f, 0.000000f, 0.000000f, 0.000000f, -0.000000f, -0.000000f, -0.000000f, 0.000000f, -0.000000f, -0.000000f, -0.000000f, -0.000000f, 0.000000f, -0.000000f, 0.000000f, 0.000000f, -0.000000f, -0.000000f, 0.000000f, 0.000000f, -0.000000f, -0.000000f, -0.000000f, -0.000000f, 0.000000f, -0.000000f, -0.000000f, 0.000000f, 0.000000f, 0.000000f, 0.000000f, 0.000000f, 0.000000f, 0.000000f, 0.000000f, -0.000000f, 0.000000f, -0.000000f, 0.000000f, -0.000000f, 0.000000f, 0.000000f, 0.000000f, 0.000000f, 0.000000f, 0.000000f, 0.000000f, -0.000000f, 0.000000f, -0.000000f, 0.000000f, 0.000000f, -0.000000f, -0.000000f, -0.000000f, -0.000000f, -0.000000f, 0.000000f, 0.000000f, -0.000000f, -0.000000f, 0.000000f, 0.000000f, -0.000000f, 0.000000f, 0.000000f, 0.000000f, -0.000000f, -0.000000f, -0.000000f, 0.000000f, -0.000000f, -0.000000f, -0.000000f, 0.000000f, -0.000000f, 0.000000f, 0.000000f, -0.000000f, -0.000000f, -0.000000f, -0.000000f, -0.000000f, 0.000000f, -0.000000f, 0.000000f, 0.000000f, 0.000000f, 0.000000f, -0.000000f, 0.000000f, -0.000000f, 0.000000f, 0.000000f, -0.000000f, -0.000000f, -0.000000f, 0.000000f, 0.000000f, 0.000000f, 0.000000f, -0.000000f, -0.000000f, 0.000000f, -0.000000f, 0.000000f, 0.000000f, -0.000000f, -0.000000f, -0.000000f, 0.000000f, 0.000000f, 0.000000f, -0.000000f, -0.000000f, 0.000000f, -0.000000f, 0.000000f, -0.000000f, 0.000000f, -0.000000f, -0.000000f, 0.000000f, -0.000000f, -0.000000f, 0.000000f, -0.000000f, -0.000000f, -0.000000f, -0.000000f, 0.000000f, 0.000000f, -0.000000f, 0.000000f, 0.000000f, -0.000000f, -0.000000f, -0.000000f, -0.000000f, 0.000000f, -0.000000f, 0.000000f, -0.000000f, 0.000000f, 0.000000f, -0.000000f, -0.000000f, 0.000000f, -0.000000f, 0.000000f, 0.000000f, 0.000000f, 0.000000f, 0.000000f},
    {0.073242f, -0.093372f, -0.042545f, -0.009899f, -0.195529f, -0.301889f, -0.042581f, -0.155360f, 0.085795f, 0.182920f, 0.185858f, 0.150514f, -0.020077f, 0.101687f, -0.013704f, -0.048257f, -0.069659f, 0.028728f, 0.130850f, -0.134988f, 0.020596f, 0.108172f, -0.160986f, -0.022214f, 0.129186f, 0.008319f, -0.005752f, -0.145429f, -0.024543f, 0.164164f, -0.058983f, -0.040264f, -0.133253f, -0.205151f, 0.203229f, -0.079596f, 0.103588f, -0.233126f, 0.126285f, 0.201848f, 0.061103f, -0.289306f, 0.063679f, 0.204188f, -0.061442f, 0.108708f, 0.197800f, 0.249020f, 0.062089f, -0.163504f, -0.054793f, -0.125502f, 0.143478f, 0.162302f, 0.073489f, -0.066628f, -0.232671f, 0.153597f, -0.045120f, -0.314307f, -0.025590f, -0.191082f, -0.094431f, 0.049373f, -0.136739f, 0.202118f, -0.146420f, -0.071371f, -0.006399f, 0.153685f, 0.055062f, 0.026371f, -0.281142f, -0.207200f, -0.066474f, 0.105362f, 0.220192f, -0.226007f, -0.044732f, 0.075806f, -0.040001f, 0.146926f, -0.133165f, 0.131172f, 0.127420f, 0.099842f, 0.057671f, -0.180902f, 0.077776f, -0.126136f, -0.110057f, 0.045853f, 0.055082f, 0.234151f, -0.242619f, 0.065712f, -0.020032f, -0.309098f, -0.102102f, -0.280134f, -0.048528f, 0.242261f, 0.058989f, 0.103210f, 0.202290f, -0.097080f, 0.195074f, -0.110715f, 0.120166f, -0.072258f, 0.202711f, -0.066852f, -0.005488f, 0.118566f, -0.028501f, -0.019876f, -0.010782f, 0.024129f, -0.102564f, -0.166044f, -0.156857f, -0.089605f, -0.182506f, -0.036959f, -0.048187f, -0.148729f, -0.044138f, 0.105610f, -0.196747f, 0.054907f, 0.124012f, -0.043412f, 0.004418f, -0.097937f, 0.027049f, -0.130865f, 0.071697f, 0.055961f, -0.219389f, -0.149795f, 0.184224f, 0.007953f, -0.006504f, 0.140403f, -0.082348f, -0.029915f, 0.079215f, 0.091933f, 0.055346f, 0.038618f, -0.054772f, 0.180550f, -0.020905f, -0.188487f, 0.153637f, 0.030849f, -0.193275f, 0.016932f, -0.021032f, 0.194719f, -0.096590f, 0.184571f, 0.083846f, -0.201618f, 0.224993f, -0.032251f, -0.021609f, 0.023788f, -0.076402f, -0.092094f, -0.056569f, -0.098392f, -0.031949f, 0.167339f, 0.068999f, -0.106190f, -0.169092f, -0.162565f, 0.225395f, -0.055518f, 0.260734f, -0.069831f, -0.131915f, 0.120052f, -0.026840f, 0.051474f, 0.239159f, -0.158310f, -0.124667f, 0.033232f, -0.056275f, -0.266317f, -0.188592f, -0.302309f, -0.042381f, -0.119474f, -0.072511f, -0.100532f, 0.064476f, -0.283450f, 0.122553f, -0.198063f, 0.152627f, 0.175847f, 0.022371f, -0.064385f, 0.002346f, -0.111855f, 0.141893f, 0.227753f, -0.096862f, 0.102274f, 0.113341f, 0.131558f, 0.035582f, -0.043830f, -0.039182f, 0.254331f, -0.101636f, 0.001567f, -0.059264f, -0.025119f, 0.088354f, 0.220022f, -0.202399f, 0.024792f, -0.163789f, -0.180988f, -0.107496f, 0.075601f, -0.067191f, -0.052745f, -0.276143f, -0.055767f, 0.235528f, 0.166575f, -0.082404f, 0.133649f, 0.213135f, -0.206515f, 0.205784f, 0.223426f, -0.259029f, -0.103341f, 0.193652f, 0.091145f, -0.101741f, -0.081775f, -0.139427f, 0.005789f, 0.053663f, 0.233433f, -0.088544f, -0.019250f, 0.019069f, -0.102763f, -0.083006f, 0.178752f, 0.164731f, 0.017215f, 0.116397f, -0.149762f, 0.026134f, 0.006269f, -0.018408f, 0.225100f, 0.046789f, -0.052964f, 0.130031f, -0.254442f, -0.021895f, -0.031511f, -0.074072f, 0.058902f, -0.088381f, 0.180827f, 0.132702f, -0.183212f, 0.167942f, -0.085196f, -0.109534f, 0.029862f, -0.058355f, -0.298551f, 0.058062f, 0.008608f, 0.001866f, 0.172018f, 0.087024f, 0.144584f, -0.167101f, 0.061325f, 0.238368f, 0.042647f, 0.059001f, -0.069721f, -0.129801f, -0.091399f, 0.051465f, 0.241261f}
};

/* Layer 1 biases */
static const float BIASES_0[300] = {
    -0.127750f, 0.166714f, 0.100513f, -0.039674f, -0.037815f, 0.159006f, 0.124043f, -0.026826f, -0.058451f, 0.047479f, 0.056221f, -0.072833f, 0.157668f, -0.246695f, -0.229762f, 0.036901f, -0.042688f, -0.075774f, 0.095355f, -0.026817f, -0.164582f, -0.163645f, 0.193056f, 0.009123f, 0.024773f, -0.015417f, 0.145179f, -0.034490f, 0.109662f, 0.096343f, 0.055898f, -0.208779f, 0.027343f, -0.090749f, 0.032228f, 0.098602f, -0.084506f, 0.045045f, -0.189460f, 0.190777f, -0.002152f, -0.042798f, -0.123652f, 0.178396f, -0.167235f, -0.085216f, -0.061389f, 0.080064f, -0.046363f, -0.062177f, -0.043197f, -0.076890f, -0.088058f, 0.006063f, 0.033742f, -0.126332f, -0.080238f, -0.060062f, 0.116024f, 0.205393f, 0.080201f, -0.060843f, -0.158740f, -0.041362f, -0.088951f, 0.022400f, 0.069285f, -0.003919f, 0.114394f, -0.023776f, 0.083806f, -0.034342f, -0.134964f, 0.072670f, -0.110360f, 0.013703f, 0.004219f, 0.005281f, 0.047359f, -0.054990f, -0.014888f, 0.004839f, -0.029504f, -0.004480f, 0.068580f, 0.124890f, -0.079345f, 0.120936f, 0.004043f, 0.101468f, -0.186904f, 0.102401f, 0.067513f, 0.042027f, 0.061134f, -0.121816f, 0.064488f, 0.069666f, -0.028430f, 0.094698f, 0.040503f, -0.093977f, -0.072972f, -0.122425f, -0.022954f, -0.076454f, 0.016897f, -0.058284f, -0.112419f, 0.068112f, -0.061988f, 0.140003f, 0.126722f, 0.044065f, -0.041472f, 0.092912f, 0.039971f, 0.021043f, -0.172435f, -0.013917f, 0.006887f, 0.030309f, 0.158607f, -0.080222f, -0.017455f, -0.053036f, 0.021916f, -0.179334f, -0.017545f, -0.022056f, 0.030420f, -0.131240f, 0.065971f, 0.134242f, -0.147506f, -0.121832f, -0.162057f, 0.158928f, -0.021179f, -0.011580f, -0.065525f, 0.071894f, 0.082485f, 0.146106f, 0.019217f, -0.088700f, -0.151342f, -0.240092f, -0.092898f, -0.047801f, -0.040159f, 0.054250f, 0.180761f, 0.015008f, 0.107284f, 0.135439f, -0.113567f, 0.118446f, -0.004116f, 0.053740f, -0.059957f, 0.200787f, -0.159806f, -0.121046f, 0.170837f, -0.255828f, 0.008834f, 0.119669f, 0.162159f, 0.118553f, 0.101495f, -0.094711f, 0.099978f, -0.016854f, 0.070785f, -0.188258f, 0.025513f, 0.178102f, 0.086424f, -0.021555f, -0.131432f, -0.041466f, 0.075522f, 0.040627f, 0.031678f, -0.225140f, 0.020346f, -0.019702f, 0.082705f, 0.022406f, -0.113373f, 0.008565f, -0.165405f, 0.140842f, 0.001083f, -0.034900f, -0.030709f, 0.065342f, 0.009976f, 0.019355f, -0.022407f, -0.080451f, -0.115166f, 0.055090f, -0.123306f, 0.044377f, 0.164771f, 0.045159f, -0.016761f, -0.076169f, -0.194241f, 0.002330f, 0.150653f, -0.104021f, -0.019919f, 0.154041f, 0.092474f, -0.099133f, -0.001920f, -0.124105f, -0.137953f, 0.072203f, 0.127616f, 0.110935f, -0.120817f, 0.113696f, -0.087309f, -0.061817f, -0.055613f, -0.136741f, 0.084386f, 0.036193f, -0.089585f, -0.076849f, -0.096174f, -0.201844f, 0.016365f, 0.101031f, -0.036510f, -0.100471f, 0.038429f, 0.155096f, -0.031831f, -0.077904f, -0.035763f, -0.065062f, -0.102780f, 0.103410f, 0.007240f, 0.021146f, 0.160741f, 0.042806f, -0.093123f, 0.030251f, -0.082993f, -0.097888f, 0.043433f, 0.107085f, 0.165285f, 0.011908f, -0.031609f, -0.092944f, 0.033746f, 0.027368f, -0.036376f, 0.143771f, -0.021597f, 0.138273f, -0.178999f, 0.087558f, 0.174207f, -0.091885f, 0.074147f, -0.076018f, 0.162877f, -0.190079f, -0.016305f, -0.096285f, 0.117151f, -0.134304f, -0.099670f, -0.027526f, 0.111107f, -0.042069f, -0.103724f, 0.157542f, 0.024484f, 0.174058f, -0.222879f, 0.011818f, -0.084000f, -0.113033f, 0.069881f, 0.102458f, 0.085849f, -0.073959f, -0.014905f, 0.010024f, 0.157235f, -0.033008f
};

/* Layer 2 weights (HIDDEN) */
static const float WEIGHTS_1[300][300] = {
    {0.017593f, -0.098054f, -0.116977f, -0.071979f, 0.084052f, -0.091862f, 0.096047f, -0.034462f, -0.019522f, 0.045818f, -0.014101f, 0.093567f, -0.043557f, 0.024796f, 0.056400f, -0.037111f, -0.003010f, -0.038646f, -0.055295f, -0.071363f, -0.000931f, -0.002695f, 0.066327f, -0.073503f, -0.269018f, -0.027073f, -0.042865f, -0.093212f, -0.116245f, 0.018249f, 0.065677f, -0.060485f, -0.024417f, 0.018077f, 0.053285f, 0.023253f, -0.047807f, 0.008501f, -0.103384f, -0.138718f, 0.110172f, 0.031625f, 0.023883f, -0.005750f, -0.000000f, 0.088905f, 0.055258f, 0.003683f, 0.146792f, 0.076866f, -0.098768f, 0.010311f, -0.091088f, 0.062366f, 0.076704f, -0.016342f, 0.049443f, -0.002337f, 0.018226f, -0.012897f, 0.016072f, 0.159550f, 0.166431f, -0.086663f, 0.109392f, 0.011267f, -0.072711f, -0.116162f, -0.079099f, 0.079444f, 0.078482f, 0.160178f, -0.062071f, 0.099469f, -0.038900f, 0.017101f, 0.010163f, -0.038064f, -0.019782f, -0.025471f, 0.024318f, 0.040718f, 0.017808f, -0.059486f, -0.111999f, 0.067829f, -0.071882f, -0.000000f, 0.154191f, -0.091737f, -0.015508f, 0.059485f, 0.095731f, 0.132711f, -0.013656f, -0.138074f, -0.050570f, 0.062739f, 0.086685f, -0.077277f, 0.064754f, -0.081745f, -0.012751f, 0.072455f, 0.027022f, -0.130286f, -0.060492f, 0.183347f, 0.027381f, 0.029675f, -0.040020f, 0.050647f, 0.146882f, 0.002972f, -0.084351f, -0.051960f, -0.089275f, 0.040934f, 0.115303f, -0.005111f, 0.100178f, -0.066862f, 0.000879f, 0.031781f, 0.000089f, -0.070103f, -0.066614f, -0.143840f, -0.027849f, -0.085029f, 0.034487f, 0.023142f, 0.085610f, 0.005726f, 0.070992f, 0.053485f, 0.141449f, -0.056438f, 0.069332f, 0.087371f, -0.037280f, -0.042000f, -0.086277f, -0.174200f, 0.109287f, -0.061704f, -0.102640f, -0.131316f, -0.106388f, -0.002717f, -0.047142f, 0.153431f, 0.035726f, 0.107744f, -0.016339f, -0.028888f, -0.092406f, -0.134465f, -0.090077f, -0.018544f, -0.048348f, -0.024747f, -0.075677f, 0.015138f, 0.063091f, -0.014775f, 0.064661f, -0.181049f, 0.141020f, 0.035898f, -0.011507f, -0.102220f, -0.015755f, 0.065848f, -0.004306f, -0.055312f, -0.054408f, 0.004991f, -0.006830f, 0.045613f, -0.093661f, 0.042124f, -0.146091f, 0.020861f, 0.065478f, 0.090891f, -0.008924f, 0.071228f, 0.265419f, 0.091333f, -0.046890f, -0.019481f, 0.068864f, -0.020718f, -0.027863f, 0.014321f, 0.060498f, -0.003790f, 0.121361f, -0.009923f, 0.001450f, -0.021782f, -0.083247f, -0.207025f, -0.085212f, 0.004212f, -0.001623f, 0.183645f, -0.035450f, 0.044641f, 0.020698f, -0.002599f, -0.008354f, -0.012259f, 0.081458f, -0.084307f, 0.122479f, -0.220429f, -0.206496f, -0.049519f, -0.068392f, 0.143803f, -0.084568f, 0.046505f, -0.098631f, 0.024615f, 0.098363f, 0.000000f, -0.067908f, 0.047939f, -0.066424f, -0.040578f, -0.041896f, -0.077731f, -0.065969f, 0.079671f, 0.020825f, -0.061990f, 0.034209f, 0.021167f, 0.027013f, 0.019205f, -0.036229f, 0.069610f, 0.147204f, -0.066184f, -0.025549f, -0.111462f, 0.010545f, 0.117903f, -0.060590f, -0.105566f, 0.052676f, 0.007638f, -0.053986f, 0.039207f, -0.058656f, -0.128431f, 0.086668f, 0.059596f, -0.021309f, 0.009727f, -0.062575f, 0.020605f, -0.023415f, 0.115847f, 0.130256f, -0.009064f, 0.152529f, 0.044930f, -0.063051f, -0.127656f, 0.079510f, 0.078413f, -0.008614f, 0.086255f, -0.186153f, -0.152145f, 0.107007f, -0.019068f, 0.025103f, -0.104492f, 0.167798f, -0.166184f, -0.168054f, -0.157780f, 0.023580f, 0.053963f, -0.030196f, 0.036527f, -0.103923f, -0.008971f, -0.011260f, -0.055510f, -0.080092f, 0.085943f, -0.067382f, -0.006350f, -0.002967f, -0.085356f},
    {-0.011325f, -0.012964f, 0.058796f, 0.001443f, -0.093514f, 0.097687f, -0.046414f, -0.070445f, 0.060990f, -0.013649f, 0.009928f, 0.042320f, 0.083492f, -0.006897f, -0.035334f, 0.146398f, -0.023869f, -0.013356f, 0.047504f, -0.122199f, -0.056833f, 0.086954f, 0.088801f, 0.007811f, -0.061899f, -0.099154f, 0.037703f, 0.018666f, 0.036540f, -0.101065f, -0.010208f, -0.025002f, 0.110418f, -0.045492f, -0.013767f, -0.082370f, 0.072274f, 0.154169f, -0.008729f, 0.088951f, -0.021866f, -0.083297f, -0.057233f, -0.024364f, -0.000000f, -0.009148f, -0.074057f, -0.040454f, 0.018786f, 0.117894f, 0.002602f, 0.106648f, -0.021521f, -0.018682f, 0.059453f, 0.096000f, -0.067097f, -0.009579f, 0.054166f, 0.079976f, -0.141594f, -0.024708f, 0.034728f, 0.090785f, -0.044404f, 0.016435f, 0.011946f, -0.048593f, -0.120000f, -0.068901f, 0.163351f, -0.069763f, -0.010682f, -0.043648f, -0.032419f, -0.173902f, 0.005789f, -0.010324f, -0.015695f, -0.098290f, -0.046465f, 0.054418f, -0.031781f, -0.015047f, -0.037711f, 0.017428f, 0.063096f, -0.000165f, 0.014667f, -0.093722f, 0.057409f, 0.031161f, -0.012882f, -0.043679f, -0.094283f, 0.030843f, -0.110299f, 0.096472f, -0.018776f, 0.091103f, -0.072720f, 0.078468f, -0.035516f, 0.140986f, -0.121695f, -0.101514f, -0.008130f, -0.126197f, -0.055662f, 0.092041f, 0.063774f, -0.030879f, 0.071514f, -0.051933f, -0.108084f, 0.134800f, 0.026805f, 0.138649f, -0.056060f, 0.079656f, -0.127571f, -0.024531f, -0.057644f, 0.088615f, 0.039298f, 0.059326f, 0.041300f, -0.017908f, -0.048079f, -0.043948f, 0.032646f, 0.028459f, 0.085882f, -0.086009f, -0.096409f, -0.128679f, 0.020541f, -0.007672f, 0.102050f, 0.043395f, 0.005227f, -0.044638f, -0.090811f, 0.129752f, 0.128368f, -0.093313f, -0.010717f, 0.080090f, -0.002110f, 0.074986f, -0.120188f, 0.002975f, -0.053478f, -0.154181f, -0.061535f, -0.070958f, 0.076221f, 0.049105f, -0.092421f, 0.048693f, -0.074596f, -0.118127f, -0.038974f, -0.015134f, -0.036334f, -0.026720f, -0.003652f, 0.073847f, -0.134147f, -0.055483f, -0.057970f, 0.044498f, -0.132430f, -0.010000f, -0.008206f, -0.093201f, 0.096634f, -0.077019f, -0.047180f, -0.118918f, 0.086853f, -0.082206f, -0.042359f, 0.105112f, -0.177986f, 0.126859f, 0.069155f, -0.010911f, -0.264330f, -0.080984f, -0.044507f, 0.028060f, 0.042590f, 0.107694f, 0.050532f, -0.118689f, -0.098025f, 0.071600f, -0.065178f, -0.114705f, 0.017455f, -0.008370f, 0.014374f, 0.087959f, -0.111736f, 0.071045f, -0.046617f, -0.068213f, 0.064912f, 0.021853f, 0.039008f, -0.035447f, -0.099842f, -0.051779f, 0.072766f, 0.176438f, -0.110393f, -0.011747f, 0.013884f, -0.110670f, 0.157575f, 0.012352f, -0.120826f, 0.044102f, -0.071184f, 0.012567f, -0.118296f, -0.000000f, 0.146843f, -0.043961f, 0.004291f, 0.015927f, 0.132797f, -0.067331f, -0.038326f, 0.055282f, 0.015885f, 0.111275f, 0.059588f, 0.032467f, 0.158527f, -0.086135f, -0.007820f, 0.018145f, 0.038302f, 0.047737f, -0.085005f, 0.172232f, 0.030082f, -0.067815f, -0.070487f, -0.043986f, -0.026886f, -0.089040f, -0.076733f, -0.025865f, 0.027260f, 0.037080f, 0.061169f, -0.077189f, -0.078955f, 0.068258f, -0.026076f, 0.066614f, 0.076461f, 0.020337f, 0.057790f, -0.101840f, -0.116062f, 0.057378f, -0.022461f, 0.090338f, -0.141546f, 0.001854f, 0.008581f, 0.082860f, -0.036403f, -0.030321f, 0.046273f, -0.091194f, 0.015699f, -0.040783f, 0.108692f, 0.042684f, -0.096070f, 0.021731f, 0.054231f, 0.024558f, 0.054474f, -0.036589f, -0.084197f, 0.074938f, 0.111245f, -0.001306f, 0.134445f, 0.056362f, -0.052606f, -0.029238f, 0.126387f, 0.069857f},
    {0.043384f, -0.004598f, -0.049123f, 0.112918f, -0.003097f, -0.032453f, -0.099633f, -0.009862f, 0.015862f, 0.103001f, -0.035578f, 0.019343f, 0.055383f, -0.033439f, -0.196831f, 0.100960f, -0.010669f, 0.061031f, 0.014901f, -0.182387f, 0.009477f, 0.041727f, 0.005455f, -0.009579f, -0.037368f, -0.067277f, 0.122942f, -0.030613f, -0.006224f, -0.063128f, -0.058490f, 0.129488f, 0.039445f, 0.024344f, -0.072974f, 0.120775f, -0.022406f, -0.032846f, -0.023688f, -0.028034f, -0.056327f, 0.057357f, 0.007273f, 0.130854f, 0.000000f, -0.077573f, 0.010520f, 0.124490f, 0.013453f, 0.044517f, -0.087999f, -0.009153f, -0.085413f, 0.048135f, 0.064442f, 0.093603f, 0.052248f, 0.031112f, 0.102124f, 0.079781f, -0.099038f, -0.061238f, -0.073583f, 0.031644f, -0.042151f, 0.024609f, -0.055667f, -0.078202f, -0.021312f, 0.076096f, 0.060067f, 0.006532f, 0.143815f, 0.131645f, -0.042268f, -0.165155f, 0.095398f, 0.043391f, 0.116763f, 0.131762f, 0.065776f, -0.002396f, -0.070218f, -0.049714f, 0.058686f, 0.069910f, 0.014355f, 0.000015f, -0.053424f, -0.063614f, -0.123188f, -0.015279f, -0.009530f, -0.086715f, 0.086275f, -0.040722f, 0.056278f, 0.013506f, -0.015605f, 0.094256f, -0.004115f, 0.082858f, -0.119867f, 0.112070f, -0.134163f, 0.082543f, -0.009788f, -0.095111f, 0.038735f, 0.092947f, -0.182031f, -0.033669f, -0.003119f, -0.009174f, -0.007834f, 0.024580f, 0.019874f, 0.088459f, 0.028649f, 0.049496f, 0.129088f, 0.034661f, -0.089812f, -0.076353f, -0.021651f, -0.036433f, 0.168647f, 0.098028f, -0.034594f, 0.063845f, 0.116315f, 0.051746f, 0.119216f, 0.047939f, 0.121626f, 0.010733f, -0.046929f, -0.103797f, 0.019344f, 0.009528f, -0.012661f, -0.119840f, 0.076702f, -0.073484f, 0.049158f, 0.027276f, 0.122934f, 0.044578f, -0.059365f, -0.000022f, 0.068400f, 0.061934f, 0.006043f, -0.085462f, 0.062081f, -0.115485f, 0.102848f, -0.017141f, -0.137475f, -0.085014f, 0.005956f, 0.039688f, 0.101716f, -0.052799f, 0.041979f, -0.137331f, 0.023699f, -0.091622f, 0.116294f, 0.052778f, 0.088030f, 0.084458f, -0.068569f, 0.062510f, 0.024742f, 0.105702f, 0.067707f, -0.083593f, 0.039372f, -0.085590f, -0.047132f, -0.042019f, 0.053658f, -0.082191f, -0.141817f, -0.020052f, 0.058195f, -0.025890f, -0.010388f, 0.039535f, 0.050485f, 0.017334f, -0.054752f, -0.045158f, 0.124011f, -0.078746f, -0.051275f, -0.068233f, -0.040975f, 0.041725f, -0.030992f, -0.063429f, -0.125262f, -0.064707f, -0.124979f, 0.044557f, 0.053064f, 0.093858f, 0.080318f, -0.088804f, -0.104913f, 0.073493f, -0.170962f, 0.085255f, 0.018956f, -0.048131f, 0.077873f, 0.020944f, 0.130312f, -0.095531f, -0.034766f, -0.037836f, 0.070477f, -0.039110f, -0.059216f, 0.081949f, -0.069720f, 0.000000f, -0.064269f, 0.047305f, 0.058372f, 0.068746f, 0.149596f, -0.159895f, -0.091256f, -0.056753f, 0.020869f, 0.088285f, 0.019849f, 0.015413f, -0.062478f, 0.037390f, 0.107266f, -0.042178f, -0.082938f, -0.129907f, 0.000840f, 0.030611f, -0.027388f, 0.006399f, -0.043160f, 0.025686f, 0.054107f, -0.089829f, 0.083376f, 0.064652f, 0.036216f, -0.063409f, -0.008318f, 0.093885f, -0.067886f, 0.021590f, -0.040380f, -0.014323f, -0.071444f, -0.068538f, 0.072736f, 0.024692f, 0.002656f, 0.028978f, 0.028770f, -0.136480f, -0.031697f, 0.057516f, -0.061264f, 0.072165f, 0.147808f, -0.014272f, -0.068533f, -0.057898f, 0.141432f, 0.102802f, -0.044828f, -0.074669f, 0.002607f, -0.009283f, 0.022973f, -0.050182f, -0.057832f, 0.042521f, -0.033945f, 0.026893f, -0.018229f, 0.107850f, 0.115480f, 0.003548f, -0.082494f, -0.015732f, 0.193519f, 0.010819f},
    {0.010901f, 0.048482f, -0.028771f, 0.068634f, -0.056264f, -0.029596f, -0.150840f, -0.053322f, 0.127278f, -0.060306f, -0.001006f, 0.083595f, 0.081490f, 0.000000f, -0.278858f, 0.058214f, -0.009716f, 0.040049f, -0.067231f, 0.087285f, -0.092668f, 0.023463f, 0.065580f, 0.006785f, 0.083142f, -0.227433f, 0.005392f, 0.038893f, 0.033470f, 0.070252f, -0.115678f, -0.002543f, 0.036999f, 0.013365f, -0.020871f, 0.021508f, 0.054922f, 0.023681f, -0.107177f, 0.005860f, 0.048540f, 0.057473f, -0.014002f, 0.121458f, 0.000000f, -0.001403f, -0.030440f, 0.060043f, 0.083954f, 0.046011f, -0.022543f, 0.093055f, 0.013340f, -0.053523f, -0.015517f, -0.103878f, 0.013467f, -0.025417f, -0.013819f, -0.031113f, -0.024220f, -0.097041f, -0.126536f, 0.057065f, -0.048741f, 0.131189f, -0.089535f, 0.062709f, -0.026475f, -0.060991f, -0.007279f, -0.005926f, -0.081143f, 0.014568f, -0.044124f, 0.099540f, 0.042863f, -0.045326f, 0.029606f, 0.099335f, 0.107951f, -0.002602f, 0.016268f, -0.009349f, 0.088216f, -0.194432f, -0.101012f, -0.000000f, -0.012363f, -0.086595f, 0.041495f, -0.124810f, 0.000721f, 0.012275f, 0.106259f, 0.041676f, 0.035758f, 0.076756f, 0.073114f, -0.057743f, 0.020625f, 0.065138f, 0.056402f, -0.106195f, 0.104551f, 0.076105f, 0.150186f, 0.058617f, 0.003754f, 0.117743f, -0.117167f, -0.014858f, 0.024693f, 0.170577f, -0.002212f, -0.046631f, -0.226651f, -0.035164f, -0.161413f, -0.050300f, 0.108200f, 0.010717f, 0.098306f, 0.004366f, 0.055775f, -0.042138f, 0.018649f, -0.015846f, 0.037852f, 0.104409f, 0.068096f, -0.157106f, 0.104388f, 0.049279f, -0.064414f, 0.073707f, 0.025763f, -0.159462f, -0.093832f, 0.113371f, -0.262505f, -0.065762f, 0.042008f, 0.054851f, -0.029823f, 0.171349f, 0.003134f, -0.020253f, 0.029181f, -0.020552f, -0.191577f, 0.010540f, -0.078246f, -0.210842f, -0.037029f, -0.014089f, 0.077678f, 0.010493f, 0.070071f, -0.025515f, -0.004309f, -0.019110f, -0.115947f, 0.007863f, 0.026993f, 0.041373f, 0.082645f, 0.011369f, 0.155116f, -0.022027f, -0.171279f, 0.074089f, 0.004486f, -0.075390f, -0.013782f, 0.082557f, 0.025434f, -0.014207f, 0.103806f, -0.039756f, -0.074088f, -0.041021f, 0.015052f, 0.023738f, -0.056330f, 0.063436f, 0.106555f, 0.055106f, 0.050652f, 0.019106f, 0.150624f, -0.106741f, -0.036463f, 0.007901f, 0.029632f, -0.082239f, 0.138412f, -0.032095f, -0.072189f, 0.040167f, -0.000030f, -0.039732f, -0.128432f, 0.023220f, -0.029408f, 0.029573f, 0.020326f, 0.011226f, -0.067429f, -0.062647f, 0.059936f, -0.114466f, -0.058646f, 0.064965f, -0.011276f, -0.033399f, -0.043648f, 0.086395f, 0.119991f, 0.017104f, -0.134116f, -0.007368f, 0.105944f, -0.006995f, 0.002110f, 0.033244f, -0.063144f, -0.000000f, 0.087497f, -0.016941f, 0.137286f, -0.043614f, 0.013030f, 0.108952f, 0.145873f, -0.038482f, -0.021709f, -0.053843f, 0.011924f, 0.169898f, 0.057173f, -0.220215f, -0.043768f, -0.037793f, 0.071121f, -0.064301f, -0.004114f, -0.073796f, -0.009668f, -0.140013f, 0.009623f, 0.088485f, 0.052955f, 0.016214f, -0.060445f, -0.082441f, 0.033476f, -0.081258f, 0.010582f, 0.080509f, -0.094324f, 0.123419f, 0.088065f, -0.000000f, -0.043679f, -0.111839f, -0.029109f, 0.011877f, 0.089361f, 0.128625f, -0.028188f, -0.075569f, 0.129835f, -0.053680f, 0.060160f, -0.014150f, -0.049394f, -0.146349f, 0.060086f, 0.000035f, 0.134827f, -0.032357f, -0.149290f, 0.053023f, 0.169358f, -0.000587f, -0.028817f, -0.006607f, -0.063645f, 0.005659f, 0.076036f, 0.050112f, 0.097850f, 0.029263f, -0.015538f, 0.097698f, 0.144499f, -0.097618f, -0.006390f, -0.142218f},
    {-0.057625f, -0.077712f, -0.230925f, -0.040584f, -0.028804f, -0.122602f, -0.027063f, 0.088545f, 0.094389f, -0.086121f, 0.014857f, 0.076723f, -0.067168f, -0.056543f, -0.071562f, -0.149296f, -0.009271f, -0.005878f, 0.077040f, -0.043009f, 0.163734f, -0.158074f, -0.114946f, -0.024790f, -0.001521f, 0.002264f, 0.007041f, 0.048688f, -0.007394f, -0.071429f, -0.171543f, -0.110966f, -0.010454f, -0.173709f, 0.096110f, 0.008459f, -0.029378f, 0.074583f, 0.000221f, -0.163143f, 0.083011f, 0.091695f, 0.074245f, -0.060933f, -0.000000f, 0.060430f, 0.019707f, -0.102804f, 0.110909f, -0.194380f, 0.043361f, 0.039230f, -0.015599f, -0.129668f, 0.114328f, -0.063783f, -0.008866f, 0.087533f, 0.003764f, 0.123414f, -0.042103f, 0.031968f, 0.145064f, -0.016387f, -0.009590f, -0.187471f, 0.088212f, -0.077447f, -0.028175f, 0.025494f, -0.074974f, 0.088639f, -0.066663f, -0.077644f, 0.011960f, 0.026333f, -0.023124f, 0.052794f, 0.013447f, -0.484565f, -0.016618f, 0.041081f, 0.155984f, 0.043187f, -0.005962f, 0.012516f, -0.000426f, 0.000000f, -0.147239f, -0.195076f, 0.165079f, -0.058761f, -0.063686f, -0.076209f, 0.051344f, -0.022021f, 0.032726f, 0.026722f, 0.012618f, -0.028738f, -0.057851f, -0.101341f, 0.147492f, 0.059122f, 0.008669f, -0.131892f, -0.006864f, -0.110063f, -0.027470f, -0.119058f, -0.074015f, 0.011382f, 0.002161f, -0.108423f, -0.179095f, 0.126076f, -0.019948f, -0.018191f, -0.061291f, -0.012602f, 0.037614f, 0.089800f, 0.079614f, 0.063490f, 0.049006f, 0.016393f, -0.095705f, 0.024286f, -0.076231f, -0.077995f, -0.007329f, -0.022720f, -0.001439f, -0.078673f, -0.006315f, 0.041123f, -0.053655f, -0.060071f, 0.068372f, 0.061789f, 0.134055f, 0.014865f, -0.031016f, -0.107274f, 0.169470f, -0.099589f, 0.051642f, -0.115241f, -0.041950f, -0.012146f, 0.154075f, -0.002205f, 0.094505f, 0.029616f, -0.009874f, -0.103013f, 0.032430f, -0.053688f, -0.129650f, 0.096356f, 0.024451f, -0.121158f, 0.076199f, 0.001321f, -0.017659f, -0.137716f, -0.089898f, 0.009878f, -0.055258f, -0.048743f, 0.028987f, 0.020293f, 0.235440f, -0.073665f, -0.008045f, -0.056298f, 0.079444f, 0.041229f, -0.032775f, 0.073136f, 0.033030f, 0.082592f, -0.153743f, -0.078268f, 0.037474f, -0.089623f, -0.000170f, -0.008341f, -0.060306f, -0.148584f, -0.143940f, 0.116668f, 0.048190f, -0.027798f, -0.116484f, -0.008071f, -0.014882f, -0.079931f, -0.066718f, 0.011211f, -0.011408f, -0.064351f, 0.010633f, -0.033179f, -0.044970f, -0.089861f, -0.087885f, -0.157631f, 0.069763f, -0.004607f, 0.144432f, 0.062154f, 0.036802f, -0.084823f, -0.011921f, 0.111302f, 0.081039f, -0.131143f, 0.094651f, -0.074717f, 0.149093f, -0.104433f, -0.090884f, 0.155571f, 0.006923f, -0.014031f, -0.251103f, 0.000000f, -0.118640f, 0.076250f, 0.053509f, -0.146055f, 0.116986f, -0.273884f, 0.010264f, 0.049394f, 0.058162f, 0.076103f, -0.022843f, -0.111327f, 0.069766f, -0.018340f, 0.032217f, -0.023353f, 0.124875f, 0.075037f, 0.134920f, -0.030064f, 0.013464f, 0.038459f, 0.044971f, -0.081328f, 0.084300f, 0.057088f, -0.037324f, 0.121022f, 0.051975f, -0.013426f, 0.054735f, 0.035149f, 0.032792f, -0.043510f, -0.063615f, 0.019406f, 0.070212f, -0.119830f, 0.154603f, -0.026547f, -0.103683f, -0.200452f, 0.049645f, 0.074105f, -0.015042f, 0.159847f, -0.203541f, -0.016847f, 0.054344f, 0.112673f, 0.001506f, -0.008097f, -0.066482f, 0.003048f, 0.052421f, 0.104163f, 0.014212f, 0.145062f, 0.050960f, -0.035271f, -0.016128f, -0.006691f, -0.026906f, -0.107287f, 0.012007f, -0.054766f, 0.081687f, -0.121416f, -0.180714f, 0.098554f, 0.047794f, 0.138224f},
    {-0.033738f, -0.055112f, 0.019487f, -0.173050f, 0.100651f, -0.067582f, -0.079540f, -0.001732f, -0.012998f, 0.085502f, 0.010502f, -0.124135f, -0.054473f, -0.006636f, -0.099175f, 0.057665f, -0.020478f, -0.109924f, 0.127621f, 0.136229f, 0.047652f, -0.063873f, -0.055166f, 0.037942f, 0.121437f, 0.100693f, 0.102192f, -0.117386f, 0.075168f, 0.061177f, -0.057972f, -0.018204f, -0.036515f, 0.002951f, -0.017303f, -0.014917f, 0.021371f, 0.133707f, 0.109540f, -0.071008f, 0.046517f, 0.080993f, -0.090015f, 0.028277f, -0.000000f, -0.011665f, 0.071534f, 0.072004f, -0.084113f, 0.089827f, 0.032323f, 0.103813f, -0.075470f, 0.104530f, -0.110225f, 0.050212f, -0.089892f, -0.048723f, 0.001794f, 0.025286f, -0.180478f, -0.017922f, 0.021079f, -0.021617f, -0.002940f, -0.269011f, -0.045139f, -0.027841f, -0.013348f, 0.024704f, 0.033919f, 0.195162f, 0.128156f, -0.097026f, -0.004335f, 0.051185f, 0.029244f, -0.055118f, 0.042829f, 0.046542f, 0.065549f, -0.103781f, -0.033519f, 0.095057f, -0.066672f, -0.017581f, 0.041477f, -0.000440f, 0.011411f, 0.126183f, 0.119979f, -0.043404f, -0.179437f, -0.058429f, -0.100479f, 0.069395f, -0.005122f, 0.028077f, -0.061454f, -0.052590f, -0.085309f, 0.025948f, -0.032642f, 0.110941f, -0.114212f, -0.009977f, 0.106106f, -0.035841f, 0.090204f, -0.114737f, 0.093387f, -0.003220f, -0.044224f, -0.052765f, -0.056273f, 0.159436f, -0.037947f, 0.078683f, -0.055023f, 0.110146f, 0.038824f, -0.080766f, 0.039171f, 0.051189f, -0.083062f, 0.027570f, -0.061921f, 0.049118f, -0.025017f, 0.032531f, 0.019008f, 0.052342f, 0.136513f, 0.013523f, 0.001919f, -0.103388f, -0.033409f, -0.101054f, 0.126462f, -0.037397f, 0.155517f, -0.096902f, 0.033291f, 0.131436f, 0.016215f, -0.109575f, -0.007854f, 0.074999f, 0.014843f, 0.073860f, -0.071748f, -0.118232f, -0.031137f, -0.022086f, -0.060993f, 0.090483f, 0.153192f, 0.115701f, -0.136366f, 0.078246f, 0.047651f, -0.064562f, 0.038572f, 0.096105f, -0.012541f, -0.221483f, 0.038941f, -0.011941f, -0.124023f, 0.100833f, 0.073507f, 0.091347f, -0.175472f, 0.005971f, -0.071107f, -0.133958f, 0.054412f, -0.090154f, 0.085036f, -0.102736f, -0.014211f, -0.077182f, 0.053629f, 0.047042f, 0.010546f, 0.010433f, -0.080017f, 0.154059f, -0.144772f, -0.195335f, -0.019937f, -0.058473f, 0.087786f, -0.002086f, -0.020519f, -0.079551f, -0.255295f, 0.064502f, 0.018318f, -0.073109f, -0.026426f, 0.027532f, 0.012004f, -0.004077f, -0.014640f, -0.066257f, 0.020618f, 0.152163f, 0.003968f, 0.094170f, 0.041640f, 0.051604f, 0.001255f, 0.068783f, 0.011619f, 0.084351f, -0.013298f, -0.197316f, -0.015565f, 0.008524f, -0.038970f, 0.053307f, -0.035454f, 0.032084f, 0.013560f, -0.034140f, -0.117327f, 0.000000f, 0.017067f, 0.020366f, -0.043003f, -0.062734f, 0.024818f, -0.076440f, -0.063602f, 0.019551f, -0.067403f, -0.034294f, -0.057610f, -0.138165f, 0.065537f, -0.078673f, -0.116925f, 0.054063f, -0.019378f, 0.072647f, 0.002799f, 0.011433f, 0.116408f, -0.037619f, -0.009611f, 0.041028f, -0.026555f, 0.008115f, 0.079528f, 0.121778f, 0.076138f, 0.008497f, -0.060370f, -0.023235f, -0.019253f, -0.050026f, 0.147324f, -0.043913f, 0.008975f, -0.052977f, 0.065617f, 0.044354f, -0.030518f, -0.003446f, 0.123175f, -0.108651f, 0.033785f, 0.012983f, -0.104064f, 0.024849f, 0.019742f, -0.055920f, 0.064910f, -0.025718f, -0.034790f, -0.085096f, -0.057294f, 0.042227f, -0.040819f, 0.151933f, -0.013926f, 0.152414f, -0.001934f, 0.087817f, -0.120136f, 0.055284f, -0.042762f, -0.002582f, 0.078461f, -0.123628f, -0.095418f, 0.127926f, -0.012746f, 0.085243f},
    {0.026164f, 0.094938f, -0.056054f, -0.145096f, -0.014725f, 0.086780f, 0.028110f, -0.052790f, 0.029742f, 0.043374f, 0.062197f, 0.122091f, -0.131941f, -0.071856f, 0.073717f, 0.056409f, -0.034627f, 0.027048f, 0.037965f, -0.111588f, 0.052762f, -0.050231f, 0.033241f, 0.026846f, -0.062631f, 0.034087f, 0.047589f, 0.007860f, 0.060569f, -0.036017f, -0.067088f, -0.090627f, -0.090226f, -0.037954f, 0.077677f, 0.058234f, -0.007474f, -0.043063f, -0.024730f, -0.093418f, -0.086891f, -0.088345f, 0.035471f, 0.091518f, -0.000000f, -0.076832f, 0.039169f, -0.066735f, 0.071732f, 0.082193f, 0.047452f, -0.034007f, 0.050054f, -0.035751f, 0.065573f, 0.013174f, -0.037026f, 0.032835f, -0.022681f, 0.014634f, 0.026371f, 0.043632f, -0.029084f, 0.098143f, 0.053790f, 0.133809f, 0.152484f, -0.070657f, 0.077555f, -0.094559f, 0.002516f, -0.089955f, -0.110992f, -0.001129f, -0.150159f, -0.042389f, -0.017609f, 0.028542f, 0.097078f, 0.035923f, 0.094283f, 0.009912f, -0.168441f, -0.102188f, 0.040669f, 0.077032f, -0.003650f, 0.000914f, 0.071900f, -0.014082f, -0.017420f, 0.042350f, 0.080665f, 0.062818f, -0.042077f, 0.004610f, -0.092023f, -0.105513f, 0.083388f, -0.100545f, 0.061553f, -0.061431f, -0.040212f, 0.003987f, -0.134695f, 0.083352f, -0.077555f, 0.042177f, -0.084577f, -0.055897f, 0.043306f, -0.062658f, 0.054260f, 0.022581f, -0.260519f, -0.009875f, -0.035580f, 0.073015f, 0.107884f, -0.002518f, 0.075978f, -0.061084f, -0.036303f, 0.013255f, 0.003345f, 0.043151f, 0.047744f, -0.002078f, 0.159927f, 0.050061f, 0.089805f, 0.067104f, -0.010506f, 0.151009f, 0.033097f, -0.088376f, -0.008869f, -0.011417f, -0.116424f, -0.092956f, -0.008662f, -0.043550f, -0.057888f, -0.038222f, -0.083801f, 0.077634f, -0.022285f, -0.094862f, -0.007045f, 0.007074f, -0.053842f, -0.012619f, -0.144498f, 0.088550f, 0.034436f, 0.113718f, 0.009744f, -0.054052f, -0.019125f, -0.021185f, -0.084397f, 0.051921f, 0.077607f, 0.020907f, -0.057524f, 0.004703f, 0.016615f, 0.088156f, 0.081306f, -0.090435f, -0.019109f, -0.045455f, 0.064314f, 0.021012f, -0.007573f, 0.028440f, 0.017923f, 0.148104f, -0.047279f, -0.138456f, 0.084077f, -0.001455f, 0.070518f, -0.124101f, -0.056085f, 0.055642f, 0.065041f, -0.015076f, -0.008854f, -0.043977f, -0.142795f, 0.013438f, -0.055295f, 0.017860f, 0.161132f, 0.030921f, -0.040243f, -0.029405f, -0.045293f, -0.086459f, 0.039904f, 0.107563f, -0.030671f, -0.112369f, -0.048458f, -0.098645f, -0.011669f, 0.029720f, 0.002386f, 0.110210f, -0.070931f, -0.033622f, 0.018183f, 0.037365f, -0.109357f, 0.103027f, -0.021139f, 0.126138f, -0.072717f, 0.129457f, -0.105416f, 0.080388f, -0.192992f, 0.084988f, 0.078461f, -0.075450f, -0.139498f, 0.000000f, 0.080974f, 0.004487f, 0.009751f, -0.005967f, -0.063200f, 0.082392f, -0.072486f, 0.000539f, 0.067155f, -0.130460f, 0.046805f, -0.017204f, 0.013434f, -0.046547f, 0.015834f, -0.080661f, 0.082591f, 0.038959f, -0.030907f, 0.080763f, -0.086088f, 0.010053f, -0.103737f, -0.007720f, -0.063563f, -0.021212f, -0.045344f, 0.066328f, -0.120797f, 0.107166f, 0.140962f, -0.077934f, 0.026902f, -0.078373f, -0.023316f, 0.031918f, 0.040755f, 0.044460f, -0.002052f, -0.019789f, -0.052387f, 0.075474f, -0.085208f, -0.057116f, -0.030855f, -0.058530f, -0.064496f, -0.030538f, 0.037436f, -0.000491f, 0.128517f, -0.000378f, -0.018978f, -0.095956f, 0.114230f, -0.121107f, 0.069183f, 0.034071f, -0.022757f, 0.092097f, -0.077227f, -0.014968f, 0.020338f, -0.023590f, 0.021973f, 0.031929f, 0.099285f, -0.157712f, 0.049928f, -0.056906f, -0.021698f, -0.112773f},
    {-0.077319f, -0.109612f, 0.105596f, -0.012579f, -0.068246f, -0.122427f, -0.032968f, 0.064707f, -0.079726f, -0.065496f, -0.033645f, -0.057709f, 0.086469f, -0.015484f, -0.346567f, -0.025255f, -0.032645f, 0.071872f, 0.066230f, -0.079405f, 0.007319f, 0.003097f, -0.177613f, -0.015387f, -0.024567f, 0.121443f, 0.185897f, -0.009069f, -0.008175f, -0.082356f, -0.095268f, 0.065153f, -0.124856f, 0.174512f, -0.092223f, 0.116216f, 0.047402f, -0.012497f, -0.068162f, 0.096560f, 0.050781f, 0.032448f, -0.042704f, 0.036899f, 0.000000f, -0.014524f, 0.132806f, -0.079989f, -0.038965f, -0.065008f, 0.001311f, 0.047345f, 0.026926f, -0.030838f, 0.001652f, -0.074488f, -0.003257f, -0.046028f, -0.073307f, -0.087874f, -0.078436f, -0.014836f, -0.069693f, -0.100310f, -0.066377f, 0.138217f, 0.012565f, -0.025697f, -0.063055f, 0.041830f, 0.058720f, -0.162624f, 0.037598f, 0.177257f, 0.006837f, 0.064886f, -0.034809f, -0.035198f, 0.034475f, -0.069306f, -0.039953f, 0.013858f, 0.036287f, 0.011436f, -0.135533f, 0.109785f, 0.000843f, 0.000000f, 0.011176f, -0.054135f, -0.040748f, -0.065634f, -0.173749f, -0.070961f, 0.062895f, 0.105064f, 0.002150f, -0.013680f, -0.008183f, 0.139154f, 0.053223f, -0.126217f, 0.011649f, 0.015277f, -0.092964f, 0.243913f, -0.084527f, -0.031072f, -0.028969f, 0.003335f, 0.056102f, -0.014912f, 0.007010f, -0.068475f, -0.137574f, -0.058528f, 0.003323f, -0.094967f, -0.072733f, -0.053401f, -0.160982f, 0.135226f, -0.072151f, -0.079705f, 0.118048f, -0.029677f, 0.095180f, 0.030409f, -0.022404f, -0.060249f, 0.056192f, -0.030185f, -0.004752f, -0.084582f, -0.046485f, -0.037090f, -0.138649f, 0.115254f, -0.084705f, 0.047401f, -0.126369f, 0.039486f, 0.092862f, -0.129070f, 0.014629f, -0.075262f, 0.040557f, 0.094033f, 0.163786f, -0.049338f, 0.227916f, -0.134521f, 0.014198f, -0.044381f, 0.055174f, -0.048340f, 0.022668f, 0.088342f, -0.101083f, -0.102313f, 0.063683f, -0.006362f, -0.069109f, -0.018334f, 0.081319f, -0.106667f, -0.079501f, -0.043571f, 0.120040f, 0.141331f, 0.154384f, -0.011942f, -0.075215f, 0.163670f, -0.003951f, 0.037279f, 0.192200f, 0.057694f, 0.007714f, 0.096384f, -0.028262f, -0.032992f, 0.167834f, -0.054373f, 0.045894f, -0.064992f, 0.007304f, -0.052623f, 0.055964f, 0.111866f, 0.058582f, -0.083855f, -0.053179f, -0.009283f, -0.077108f, -0.052054f, -0.017157f, -0.001559f, 0.099727f, -0.114423f, 0.012305f, 0.011950f, -0.116662f, 0.125232f, 0.045508f, -0.035298f, 0.020635f, -0.071563f, 0.005778f, -0.056184f, 0.102308f, -0.105482f, -0.007270f, -0.034665f, 0.002687f, -0.053537f, 0.039084f, -0.012687f, 0.002165f, 0.000462f, 0.022069f, 0.141285f, 0.057920f, -0.025277f, -0.059611f, -0.021815f, 0.067965f, -0.000000f, 0.061656f, 0.029586f, 0.049252f, 0.057654f, -0.071603f, -0.041416f, 0.000718f, -0.071053f, -0.050633f, -0.010403f, -0.079625f, 0.159019f, 0.078541f, -0.066294f, -0.024327f, 0.045938f, -0.126239f, -0.149384f, 0.080835f, -0.129297f, 0.063030f, -0.104349f, -0.031450f, -0.089044f, 0.102424f, 0.019866f, 0.078339f, 0.067544f, -0.043953f, -0.097534f, -0.030185f, 0.072491f, -0.006774f, -0.015637f, -0.026548f, -0.086269f, 0.071859f, -0.077323f, 0.087753f, 0.028736f, 0.019484f, -0.064351f, -0.096776f, -0.112892f, 0.080643f, 0.032591f, 0.134974f, -0.084461f, 0.040882f, 0.017139f, -0.069518f, 0.048150f, 0.013693f, -0.023925f, -0.070182f, 0.003433f, 0.073444f, -0.050798f, 0.125160f, 0.023104f, -0.146842f, 0.061629f, 0.057244f, -0.079249f, 0.013049f, 0.113728f, 0.000293f, 0.105513f, -0.100606f, -0.123387f, -0.003869f, -0.048415f},
    {0.057545f, 0.112696f, -0.023261f, -0.058976f, 0.060863f, 0.048496f, 0.017394f, -0.057436f, 0.105465f, 0.033479f, -0.017460f, -0.007224f, 0.095547f, 0.018155f, -0.022505f, -0.051020f, 0.004280f, -0.019931f, -0.169983f, -0.055216f, -0.034972f, -0.023736f, -0.055669f, 0.037350f, -0.055184f, -0.060246f, -0.062177f, 0.154649f, 0.061352f, -0.047963f, 0.048944f, -0.022093f, 0.089566f, -0.075750f, 0.097206f, -0.161132f, -0.065221f, 0.029074f, -0.009191f, 0.117753f, -0.115966f, -0.057470f, -0.099394f, -0.083987f, 0.000000f, -0.002732f, -0.110414f, 0.156023f, -0.058348f, 0.017118f, 0.020588f, 0.037603f, -0.077003f, 0.143149f, 0.132237f, -0.045955f, 0.034607f, -0.019353f, -0.046639f, -0.033663f, 0.143988f, -0.159339f, -0.045365f, 0.046721f, 0.049415f, 0.036969f, -0.066763f, 0.054350f, -0.027607f, -0.111120f, 0.095019f, 0.059609f, -0.038679f, -0.065572f, -0.027220f, -0.031298f, -0.047346f, 0.021193f, -0.103284f, -0.125811f, -0.277553f, -0.026786f, -0.273806f, 0.122042f, 0.009394f, -0.111083f, -0.047382f, 0.004527f, 0.023159f, -0.006747f, 0.105434f, -0.037249f, -0.005518f, -0.139529f, -0.044257f, -0.107426f, 0.093100f, -0.033081f, 0.039838f, -0.084919f, -0.067541f, -0.083322f, -0.031408f, -0.068070f, 0.037358f, -0.018728f, -0.017056f, -0.060158f, -0.098487f, -0.086997f, -0.049840f, 0.037525f, -0.198931f, 0.022405f, -0.142913f, -0.083568f, -0.046054f, -0.092502f, -0.026283f, 0.056401f, 0.053100f, -0.144077f, -0.034388f, 0.099089f, -0.158783f, 0.073351f, -0.029623f, 0.003488f, 0.052177f, 0.017997f, -0.029720f, -0.004678f, 0.052859f, 0.093055f, -0.014115f, -0.027041f, 0.101394f, 0.158368f, 0.010312f, -0.129126f, 0.052581f, 0.069792f, -0.073453f, -0.022950f, -0.046070f, 0.114774f, -0.097959f, 0.046841f, 0.090455f, 0.038282f, 0.122227f, 0.092520f, -0.203385f, 0.038294f, -0.013751f, 0.160830f, -0.008182f, 0.066372f, 0.055462f, 0.144919f, -0.095293f, -0.044935f, 0.091895f, -0.026808f, 0.022680f, -0.067197f, -0.004856f, 0.087703f, 0.055127f, 0.022800f, -0.040161f, -0.183517f, -0.096161f, 0.038950f, -0.011219f, -0.048683f, 0.010686f, -0.014605f, 0.049753f, -0.116604f, 0.009759f, -0.020234f, 0.105101f, 0.038682f, 0.055516f, 0.043184f, 0.062846f, -0.084712f, -0.181552f, -0.167451f, 0.211346f, 0.024503f, -0.141734f, -0.022237f, 0.011660f, 0.084683f, 0.102809f, -0.038977f, -0.110108f, 0.031153f, 0.009794f, 0.011918f, 0.058562f, -0.075768f, -0.029838f, -0.030522f, -0.061916f, -0.026789f, -0.048214f, 0.048456f, 0.023276f, 0.033725f, -0.135554f, 0.039500f, -0.058141f, -0.092346f, 0.096298f, 0.006193f, 0.084564f, 0.123040f, -0.129215f, -0.062914f, -0.120366f, 0.033206f, -0.171767f, 0.039955f, 0.004745f, -0.000000f, -0.000663f, -0.012377f, -0.084745f, 0.072229f, 0.061231f, 0.054903f, 0.082198f, -0.004611f, 0.029068f, 0.088422f, 0.075269f, 0.135467f, 0.066838f, 0.053265f, -0.142743f, -0.055430f, 0.150686f, 0.041022f, 0.070321f, -0.117114f, 0.066518f, 0.056495f, 0.110230f, -0.137426f, 0.029319f, 0.000001f, -0.137297f, -0.020669f, 0.007438f, -0.056562f, -0.037195f, -0.247372f, 0.091174f, -0.067175f, 0.000417f, -0.005613f, 0.008683f, 0.073485f, -0.124032f, 0.057703f, 0.076057f, -0.038698f, -0.070804f, -0.328858f, -0.018174f, 0.074033f, 0.040651f, 0.065037f, -0.144347f, -0.078797f, 0.027721f, -0.010361f, 0.012228f, -0.092479f, 0.050786f, 0.164085f, -0.009156f, 0.077793f, 0.001083f, -0.108626f, 0.014021f, -0.125517f, 0.013506f, -0.082045f, 0.143214f, 0.025735f, 0.086706f, 0.042596f, 0.067791f, -0.075618f, 0.081450f, 0.086270f},
